tree
version=v2
num_class=1
num_tree_per_iteration=1
label_index=0
max_feature_idx=3913
objective=regression
feature_names=Column_0 Column_1 Column_2 Column_3 Column_4 Column_5 Column_6 Column_7 Column_8 Column_9 Column_10 Column_11 Column_12 Column_13 Column_14 Column_15 Column_16 Column_17 Column_18 Column_19 Column_20 Column_21 Column_22 Column_23 Column_24 Column_25 Column_26 Column_27 Column_28 Column_29 Column_30 Column_31 Column_32 Column_33 Column_34 Column_35 Column_36 Column_37 Column_38 Column_39 Column_40 Column_41 Column_42 Column_43 Column_44 Column_45 Column_46 Column_47 Column_48 Column_49 Column_50 Column_51 Column_52 Column_53 Column_54 Column_55 Column_56 Column_57 Column_58 Column_59 Column_60 Column_61 Column_62 Column_63 Column_64 Column_65 Column_66 Column_67 Column_68 Column_69 Column_70 Column_71 Column_72 Column_73 Column_74 Column_75 Column_76 Column_77 Column_78 Column_79 Column_80 Column_81 Column_82 Column_83 Column_84 Column_85 Column_86 Column_87 Column_88 Column_89 Column_90 Column_91 Column_92 Column_93 Column_94 Column_95 Column_96 Column_97 Column_98 Column_99 Column_100 Column_101 Column_102 Column_103 Column_104 Column_105 Column_106 Column_107 Column_108 Column_109 Column_110 Column_111 Column_112 Column_113 Column_114 Column_115 Column_116 Column_117 Column_118 Column_119 Column_120 Column_121 Column_122 Column_123 Column_124 Column_125 Column_126 Column_127 Column_128 Column_129 Column_130 Column_131 Column_132 Column_133 Column_134 Column_135 Column_136 Column_137 Column_138 Column_139 Column_140 Column_141 Column_142 Column_143 Column_144 Column_145 Column_146 Column_147 Column_148 Column_149 Column_150 Column_151 Column_152 Column_153 Column_154 Column_155 Column_156 Column_157 Column_158 Column_159 Column_160 Column_161 Column_162 Column_163 Column_164 Column_165 Column_166 Column_167 Column_168 Column_169 Column_170 Column_171 Column_172 Column_173 Column_174 Column_175 Column_176 Column_177 Column_178 Column_179 Column_180 Column_181 Column_182 Column_183 Column_184 Column_185 Column_186 Column_187 Column_188 Column_189 Column_190 Column_191 Column_192 Column_193 Column_194 Column_195 Column_196 Column_197 Column_198 Column_199 Column_200 Column_201 Column_202 Column_203 Column_204 Column_205 Column_206 Column_207 Column_208 Column_209 Column_210 Column_211 Column_212 Column_213 Column_214 Column_215 Column_216 Column_217 Column_218 Column_219 Column_220 Column_221 Column_222 Column_223 Column_224 Column_225 Column_226 Column_227 Column_228 Column_229 Column_230 Column_231 Column_232 Column_233 Column_234 Column_235 Column_236 Column_237 Column_238 Column_239 Column_240 Column_241 Column_242 Column_243 Column_244 Column_245 Column_246 Column_247 Column_248 Column_249 Column_250 Column_251 Column_252 Column_253 Column_254 Column_255 Column_256 Column_257 Column_258 Column_259 Column_260 Column_261 Column_262 Column_263 Column_264 Column_265 Column_266 Column_267 Column_268 Column_269 Column_270 Column_271 Column_272 Column_273 Column_274 Column_275 Column_276 Column_277 Column_278 Column_279 Column_280 Column_281 Column_282 Column_283 Column_284 Column_285 Column_286 Column_287 Column_288 Column_289 Column_290 Column_291 Column_292 Column_293 Column_294 Column_295 Column_296 Column_297 Column_298 Column_299 Column_300 Column_301 Column_302 Column_303 Column_304 Column_305 Column_306 Column_307 Column_308 Column_309 Column_310 Column_311 Column_312 Column_313 Column_314 Column_315 Column_316 Column_317 Column_318 Column_319 Column_320 Column_321 Column_322 Column_323 Column_324 Column_325 Column_326 Column_327 Column_328 Column_329 Column_330 Column_331 Column_332 Column_333 Column_334 Column_335 Column_336 Column_337 Column_338 Column_339 Column_340 Column_341 Column_342 Column_343 Column_344 Column_345 Column_346 Column_347 Column_348 Column_349 Column_350 Column_351 Column_352 Column_353 Column_354 Column_355 Column_356 Column_357 Column_358 Column_359 Column_360 Column_361 Column_362 Column_363 Column_364 Column_365 Column_366 Column_367 Column_368 Column_369 Column_370 Column_371 Column_372 Column_373 Column_374 Column_375 Column_376 Column_377 Column_378 Column_379 Column_380 Column_381 Column_382 Column_383 Column_384 Column_385 Column_386 Column_387 Column_388 Column_389 Column_390 Column_391 Column_392 Column_393 Column_394 Column_395 Column_396 Column_397 Column_398 Column_399 Column_400 Column_401 Column_402 Column_403 Column_404 Column_405 Column_406 Column_407 Column_408 Column_409 Column_410 Column_411 Column_412 Column_413 Column_414 Column_415 Column_416 Column_417 Column_418 Column_419 Column_420 Column_421 Column_422 Column_423 Column_424 Column_425 Column_426 Column_427 Column_428 Column_429 Column_430 Column_431 Column_432 Column_433 Column_434 Column_435 Column_436 Column_437 Column_438 Column_439 Column_440 Column_441 Column_442 Column_443 Column_444 Column_445 Column_446 Column_447 Column_448 Column_449 Column_450 Column_451 Column_452 Column_453 Column_454 Column_455 Column_456 Column_457 Column_458 Column_459 Column_460 Column_461 Column_462 Column_463 Column_464 Column_465 Column_466 Column_467 Column_468 Column_469 Column_470 Column_471 Column_472 Column_473 Column_474 Column_475 Column_476 Column_477 Column_478 Column_479 Column_480 Column_481 Column_482 Column_483 Column_484 Column_485 Column_486 Column_487 Column_488 Column_489 Column_490 Column_491 Column_492 Column_493 Column_494 Column_495 Column_496 Column_497 Column_498 Column_499 Column_500 Column_501 Column_502 Column_503 Column_504 Column_505 Column_506 Column_507 Column_508 Column_509 Column_510 Column_511 Column_512 Column_513 Column_514 Column_515 Column_516 Column_517 Column_518 Column_519 Column_520 Column_521 Column_522 Column_523 Column_524 Column_525 Column_526 Column_527 Column_528 Column_529 Column_530 Column_531 Column_532 Column_533 Column_534 Column_535 Column_536 Column_537 Column_538 Column_539 Column_540 Column_541 Column_542 Column_543 Column_544 Column_545 Column_546 Column_547 Column_548 Column_549 Column_550 Column_551 Column_552 Column_553 Column_554 Column_555 Column_556 Column_557 Column_558 Column_559 Column_560 Column_561 Column_562 Column_563 Column_564 Column_565 Column_566 Column_567 Column_568 Column_569 Column_570 Column_571 Column_572 Column_573 Column_574 Column_575 Column_576 Column_577 Column_578 Column_579 Column_580 Column_581 Column_582 Column_583 Column_584 Column_585 Column_586 Column_587 Column_588 Column_589 Column_590 Column_591 Column_592 Column_593 Column_594 Column_595 Column_596 Column_597 Column_598 Column_599 Column_600 Column_601 Column_602 Column_603 Column_604 Column_605 Column_606 Column_607 Column_608 Column_609 Column_610 Column_611 Column_612 Column_613 Column_614 Column_615 Column_616 Column_617 Column_618 Column_619 Column_620 Column_621 Column_622 Column_623 Column_624 Column_625 Column_626 Column_627 Column_628 Column_629 Column_630 Column_631 Column_632 Column_633 Column_634 Column_635 Column_636 Column_637 Column_638 Column_639 Column_640 Column_641 Column_642 Column_643 Column_644 Column_645 Column_646 Column_647 Column_648 Column_649 Column_650 Column_651 Column_652 Column_653 Column_654 Column_655 Column_656 Column_657 Column_658 Column_659 Column_660 Column_661 Column_662 Column_663 Column_664 Column_665 Column_666 Column_667 Column_668 Column_669 Column_670 Column_671 Column_672 Column_673 Column_674 Column_675 Column_676 Column_677 Column_678 Column_679 Column_680 Column_681 Column_682 Column_683 Column_684 Column_685 Column_686 Column_687 Column_688 Column_689 Column_690 Column_691 Column_692 Column_693 Column_694 Column_695 Column_696 Column_697 Column_698 Column_699 Column_700 Column_701 Column_702 Column_703 Column_704 Column_705 Column_706 Column_707 Column_708 Column_709 Column_710 Column_711 Column_712 Column_713 Column_714 Column_715 Column_716 Column_717 Column_718 Column_719 Column_720 Column_721 Column_722 Column_723 Column_724 Column_725 Column_726 Column_727 Column_728 Column_729 Column_730 Column_731 Column_732 Column_733 Column_734 Column_735 Column_736 Column_737 Column_738 Column_739 Column_740 Column_741 Column_742 Column_743 Column_744 Column_745 Column_746 Column_747 Column_748 Column_749 Column_750 Column_751 Column_752 Column_753 Column_754 Column_755 Column_756 Column_757 Column_758 Column_759 Column_760 Column_761 Column_762 Column_763 Column_764 Column_765 Column_766 Column_767 Column_768 Column_769 Column_770 Column_771 Column_772 Column_773 Column_774 Column_775 Column_776 Column_777 Column_778 Column_779 Column_780 Column_781 Column_782 Column_783 Column_784 Column_785 Column_786 Column_787 Column_788 Column_789 Column_790 Column_791 Column_792 Column_793 Column_794 Column_795 Column_796 Column_797 Column_798 Column_799 Column_800 Column_801 Column_802 Column_803 Column_804 Column_805 Column_806 Column_807 Column_808 Column_809 Column_810 Column_811 Column_812 Column_813 Column_814 Column_815 Column_816 Column_817 Column_818 Column_819 Column_820 Column_821 Column_822 Column_823 Column_824 Column_825 Column_826 Column_827 Column_828 Column_829 Column_830 Column_831 Column_832 Column_833 Column_834 Column_835 Column_836 Column_837 Column_838 Column_839 Column_840 Column_841 Column_842 Column_843 Column_844 Column_845 Column_846 Column_847 Column_848 Column_849 Column_850 Column_851 Column_852 Column_853 Column_854 Column_855 Column_856 Column_857 Column_858 Column_859 Column_860 Column_861 Column_862 Column_863 Column_864 Column_865 Column_866 Column_867 Column_868 Column_869 Column_870 Column_871 Column_872 Column_873 Column_874 Column_875 Column_876 Column_877 Column_878 Column_879 Column_880 Column_881 Column_882 Column_883 Column_884 Column_885 Column_886 Column_887 Column_888 Column_889 Column_890 Column_891 Column_892 Column_893 Column_894 Column_895 Column_896 Column_897 Column_898 Column_899 Column_900 Column_901 Column_902 Column_903 Column_904 Column_905 Column_906 Column_907 Column_908 Column_909 Column_910 Column_911 Column_912 Column_913 Column_914 Column_915 Column_916 Column_917 Column_918 Column_919 Column_920 Column_921 Column_922 Column_923 Column_924 Column_925 Column_926 Column_927 Column_928 Column_929 Column_930 Column_931 Column_932 Column_933 Column_934 Column_935 Column_936 Column_937 Column_938 Column_939 Column_940 Column_941 Column_942 Column_943 Column_944 Column_945 Column_946 Column_947 Column_948 Column_949 Column_950 Column_951 Column_952 Column_953 Column_954 Column_955 Column_956 Column_957 Column_958 Column_959 Column_960 Column_961 Column_962 Column_963 Column_964 Column_965 Column_966 Column_967 Column_968 Column_969 Column_970 Column_971 Column_972 Column_973 Column_974 Column_975 Column_976 Column_977 Column_978 Column_979 Column_980 Column_981 Column_982 Column_983 Column_984 Column_985 Column_986 Column_987 Column_988 Column_989 Column_990 Column_991 Column_992 Column_993 Column_994 Column_995 Column_996 Column_997 Column_998 Column_999 Column_1000 Column_1001 Column_1002 Column_1003 Column_1004 Column_1005 Column_1006 Column_1007 Column_1008 Column_1009 Column_1010 Column_1011 Column_1012 Column_1013 Column_1014 Column_1015 Column_1016 Column_1017 Column_1018 Column_1019 Column_1020 Column_1021 Column_1022 Column_1023 Column_1024 Column_1025 Column_1026 Column_1027 Column_1028 Column_1029 Column_1030 Column_1031 Column_1032 Column_1033 Column_1034 Column_1035 Column_1036 Column_1037 Column_1038 Column_1039 Column_1040 Column_1041 Column_1042 Column_1043 Column_1044 Column_1045 Column_1046 Column_1047 Column_1048 Column_1049 Column_1050 Column_1051 Column_1052 Column_1053 Column_1054 Column_1055 Column_1056 Column_1057 Column_1058 Column_1059 Column_1060 Column_1061 Column_1062 Column_1063 Column_1064 Column_1065 Column_1066 Column_1067 Column_1068 Column_1069 Column_1070 Column_1071 Column_1072 Column_1073 Column_1074 Column_1075 Column_1076 Column_1077 Column_1078 Column_1079 Column_1080 Column_1081 Column_1082 Column_1083 Column_1084 Column_1085 Column_1086 Column_1087 Column_1088 Column_1089 Column_1090 Column_1091 Column_1092 Column_1093 Column_1094 Column_1095 Column_1096 Column_1097 Column_1098 Column_1099 Column_1100 Column_1101 Column_1102 Column_1103 Column_1104 Column_1105 Column_1106 Column_1107 Column_1108 Column_1109 Column_1110 Column_1111 Column_1112 Column_1113 Column_1114 Column_1115 Column_1116 Column_1117 Column_1118 Column_1119 Column_1120 Column_1121 Column_1122 Column_1123 Column_1124 Column_1125 Column_1126 Column_1127 Column_1128 Column_1129 Column_1130 Column_1131 Column_1132 Column_1133 Column_1134 Column_1135 Column_1136 Column_1137 Column_1138 Column_1139 Column_1140 Column_1141 Column_1142 Column_1143 Column_1144 Column_1145 Column_1146 Column_1147 Column_1148 Column_1149 Column_1150 Column_1151 Column_1152 Column_1153 Column_1154 Column_1155 Column_1156 Column_1157 Column_1158 Column_1159 Column_1160 Column_1161 Column_1162 Column_1163 Column_1164 Column_1165 Column_1166 Column_1167 Column_1168 Column_1169 Column_1170 Column_1171 Column_1172 Column_1173 Column_1174 Column_1175 Column_1176 Column_1177 Column_1178 Column_1179 Column_1180 Column_1181 Column_1182 Column_1183 Column_1184 Column_1185 Column_1186 Column_1187 Column_1188 Column_1189 Column_1190 Column_1191 Column_1192 Column_1193 Column_1194 Column_1195 Column_1196 Column_1197 Column_1198 Column_1199 Column_1200 Column_1201 Column_1202 Column_1203 Column_1204 Column_1205 Column_1206 Column_1207 Column_1208 Column_1209 Column_1210 Column_1211 Column_1212 Column_1213 Column_1214 Column_1215 Column_1216 Column_1217 Column_1218 Column_1219 Column_1220 Column_1221 Column_1222 Column_1223 Column_1224 Column_1225 Column_1226 Column_1227 Column_1228 Column_1229 Column_1230 Column_1231 Column_1232 Column_1233 Column_1234 Column_1235 Column_1236 Column_1237 Column_1238 Column_1239 Column_1240 Column_1241 Column_1242 Column_1243 Column_1244 Column_1245 Column_1246 Column_1247 Column_1248 Column_1249 Column_1250 Column_1251 Column_1252 Column_1253 Column_1254 Column_1255 Column_1256 Column_1257 Column_1258 Column_1259 Column_1260 Column_1261 Column_1262 Column_1263 Column_1264 Column_1265 Column_1266 Column_1267 Column_1268 Column_1269 Column_1270 Column_1271 Column_1272 Column_1273 Column_1274 Column_1275 Column_1276 Column_1277 Column_1278 Column_1279 Column_1280 Column_1281 Column_1282 Column_1283 Column_1284 Column_1285 Column_1286 Column_1287 Column_1288 Column_1289 Column_1290 Column_1291 Column_1292 Column_1293 Column_1294 Column_1295 Column_1296 Column_1297 Column_1298 Column_1299 Column_1300 Column_1301 Column_1302 Column_1303 Column_1304 Column_1305 Column_1306 Column_1307 Column_1308 Column_1309 Column_1310 Column_1311 Column_1312 Column_1313 Column_1314 Column_1315 Column_1316 Column_1317 Column_1318 Column_1319 Column_1320 Column_1321 Column_1322 Column_1323 Column_1324 Column_1325 Column_1326 Column_1327 Column_1328 Column_1329 Column_1330 Column_1331 Column_1332 Column_1333 Column_1334 Column_1335 Column_1336 Column_1337 Column_1338 Column_1339 Column_1340 Column_1341 Column_1342 Column_1343 Column_1344 Column_1345 Column_1346 Column_1347 Column_1348 Column_1349 Column_1350 Column_1351 Column_1352 Column_1353 Column_1354 Column_1355 Column_1356 Column_1357 Column_1358 Column_1359 Column_1360 Column_1361 Column_1362 Column_1363 Column_1364 Column_1365 Column_1366 Column_1367 Column_1368 Column_1369 Column_1370 Column_1371 Column_1372 Column_1373 Column_1374 Column_1375 Column_1376 Column_1377 Column_1378 Column_1379 Column_1380 Column_1381 Column_1382 Column_1383 Column_1384 Column_1385 Column_1386 Column_1387 Column_1388 Column_1389 Column_1390 Column_1391 Column_1392 Column_1393 Column_1394 Column_1395 Column_1396 Column_1397 Column_1398 Column_1399 Column_1400 Column_1401 Column_1402 Column_1403 Column_1404 Column_1405 Column_1406 Column_1407 Column_1408 Column_1409 Column_1410 Column_1411 Column_1412 Column_1413 Column_1414 Column_1415 Column_1416 Column_1417 Column_1418 Column_1419 Column_1420 Column_1421 Column_1422 Column_1423 Column_1424 Column_1425 Column_1426 Column_1427 Column_1428 Column_1429 Column_1430 Column_1431 Column_1432 Column_1433 Column_1434 Column_1435 Column_1436 Column_1437 Column_1438 Column_1439 Column_1440 Column_1441 Column_1442 Column_1443 Column_1444 Column_1445 Column_1446 Column_1447 Column_1448 Column_1449 Column_1450 Column_1451 Column_1452 Column_1453 Column_1454 Column_1455 Column_1456 Column_1457 Column_1458 Column_1459 Column_1460 Column_1461 Column_1462 Column_1463 Column_1464 Column_1465 Column_1466 Column_1467 Column_1468 Column_1469 Column_1470 Column_1471 Column_1472 Column_1473 Column_1474 Column_1475 Column_1476 Column_1477 Column_1478 Column_1479 Column_1480 Column_1481 Column_1482 Column_1483 Column_1484 Column_1485 Column_1486 Column_1487 Column_1488 Column_1489 Column_1490 Column_1491 Column_1492 Column_1493 Column_1494 Column_1495 Column_1496 Column_1497 Column_1498 Column_1499 Column_1500 Column_1501 Column_1502 Column_1503 Column_1504 Column_1505 Column_1506 Column_1507 Column_1508 Column_1509 Column_1510 Column_1511 Column_1512 Column_1513 Column_1514 Column_1515 Column_1516 Column_1517 Column_1518 Column_1519 Column_1520 Column_1521 Column_1522 Column_1523 Column_1524 Column_1525 Column_1526 Column_1527 Column_1528 Column_1529 Column_1530 Column_1531 Column_1532 Column_1533 Column_1534 Column_1535 Column_1536 Column_1537 Column_1538 Column_1539 Column_1540 Column_1541 Column_1542 Column_1543 Column_1544 Column_1545 Column_1546 Column_1547 Column_1548 Column_1549 Column_1550 Column_1551 Column_1552 Column_1553 Column_1554 Column_1555 Column_1556 Column_1557 Column_1558 Column_1559 Column_1560 Column_1561 Column_1562 Column_1563 Column_1564 Column_1565 Column_1566 Column_1567 Column_1568 Column_1569 Column_1570 Column_1571 Column_1572 Column_1573 Column_1574 Column_1575 Column_1576 Column_1577 Column_1578 Column_1579 Column_1580 Column_1581 Column_1582 Column_1583 Column_1584 Column_1585 Column_1586 Column_1587 Column_1588 Column_1589 Column_1590 Column_1591 Column_1592 Column_1593 Column_1594 Column_1595 Column_1596 Column_1597 Column_1598 Column_1599 Column_1600 Column_1601 Column_1602 Column_1603 Column_1604 Column_1605 Column_1606 Column_1607 Column_1608 Column_1609 Column_1610 Column_1611 Column_1612 Column_1613 Column_1614 Column_1615 Column_1616 Column_1617 Column_1618 Column_1619 Column_1620 Column_1621 Column_1622 Column_1623 Column_1624 Column_1625 Column_1626 Column_1627 Column_1628 Column_1629 Column_1630 Column_1631 Column_1632 Column_1633 Column_1634 Column_1635 Column_1636 Column_1637 Column_1638 Column_1639 Column_1640 Column_1641 Column_1642 Column_1643 Column_1644 Column_1645 Column_1646 Column_1647 Column_1648 Column_1649 Column_1650 Column_1651 Column_1652 Column_1653 Column_1654 Column_1655 Column_1656 Column_1657 Column_1658 Column_1659 Column_1660 Column_1661 Column_1662 Column_1663 Column_1664 Column_1665 Column_1666 Column_1667 Column_1668 Column_1669 Column_1670 Column_1671 Column_1672 Column_1673 Column_1674 Column_1675 Column_1676 Column_1677 Column_1678 Column_1679 Column_1680 Column_1681 Column_1682 Column_1683 Column_1684 Column_1685 Column_1686 Column_1687 Column_1688 Column_1689 Column_1690 Column_1691 Column_1692 Column_1693 Column_1694 Column_1695 Column_1696 Column_1697 Column_1698 Column_1699 Column_1700 Column_1701 Column_1702 Column_1703 Column_1704 Column_1705 Column_1706 Column_1707 Column_1708 Column_1709 Column_1710 Column_1711 Column_1712 Column_1713 Column_1714 Column_1715 Column_1716 Column_1717 Column_1718 Column_1719 Column_1720 Column_1721 Column_1722 Column_1723 Column_1724 Column_1725 Column_1726 Column_1727 Column_1728 Column_1729 Column_1730 Column_1731 Column_1732 Column_1733 Column_1734 Column_1735 Column_1736 Column_1737 Column_1738 Column_1739 Column_1740 Column_1741 Column_1742 Column_1743 Column_1744 Column_1745 Column_1746 Column_1747 Column_1748 Column_1749 Column_1750 Column_1751 Column_1752 Column_1753 Column_1754 Column_1755 Column_1756 Column_1757 Column_1758 Column_1759 Column_1760 Column_1761 Column_1762 Column_1763 Column_1764 Column_1765 Column_1766 Column_1767 Column_1768 Column_1769 Column_1770 Column_1771 Column_1772 Column_1773 Column_1774 Column_1775 Column_1776 Column_1777 Column_1778 Column_1779 Column_1780 Column_1781 Column_1782 Column_1783 Column_1784 Column_1785 Column_1786 Column_1787 Column_1788 Column_1789 Column_1790 Column_1791 Column_1792 Column_1793 Column_1794 Column_1795 Column_1796 Column_1797 Column_1798 Column_1799 Column_1800 Column_1801 Column_1802 Column_1803 Column_1804 Column_1805 Column_1806 Column_1807 Column_1808 Column_1809 Column_1810 Column_1811 Column_1812 Column_1813 Column_1814 Column_1815 Column_1816 Column_1817 Column_1818 Column_1819 Column_1820 Column_1821 Column_1822 Column_1823 Column_1824 Column_1825 Column_1826 Column_1827 Column_1828 Column_1829 Column_1830 Column_1831 Column_1832 Column_1833 Column_1834 Column_1835 Column_1836 Column_1837 Column_1838 Column_1839 Column_1840 Column_1841 Column_1842 Column_1843 Column_1844 Column_1845 Column_1846 Column_1847 Column_1848 Column_1849 Column_1850 Column_1851 Column_1852 Column_1853 Column_1854 Column_1855 Column_1856 Column_1857 Column_1858 Column_1859 Column_1860 Column_1861 Column_1862 Column_1863 Column_1864 Column_1865 Column_1866 Column_1867 Column_1868 Column_1869 Column_1870 Column_1871 Column_1872 Column_1873 Column_1874 Column_1875 Column_1876 Column_1877 Column_1878 Column_1879 Column_1880 Column_1881 Column_1882 Column_1883 Column_1884 Column_1885 Column_1886 Column_1887 Column_1888 Column_1889 Column_1890 Column_1891 Column_1892 Column_1893 Column_1894 Column_1895 Column_1896 Column_1897 Column_1898 Column_1899 Column_1900 Column_1901 Column_1902 Column_1903 Column_1904 Column_1905 Column_1906 Column_1907 Column_1908 Column_1909 Column_1910 Column_1911 Column_1912 Column_1913 Column_1914 Column_1915 Column_1916 Column_1917 Column_1918 Column_1919 Column_1920 Column_1921 Column_1922 Column_1923 Column_1924 Column_1925 Column_1926 Column_1927 Column_1928 Column_1929 Column_1930 Column_1931 Column_1932 Column_1933 Column_1934 Column_1935 Column_1936 Column_1937 Column_1938 Column_1939 Column_1940 Column_1941 Column_1942 Column_1943 Column_1944 Column_1945 Column_1946 Column_1947 Column_1948 Column_1949 Column_1950 Column_1951 Column_1952 Column_1953 Column_1954 Column_1955 Column_1956 Column_1957 Column_1958 Column_1959 Column_1960 Column_1961 Column_1962 Column_1963 Column_1964 Column_1965 Column_1966 Column_1967 Column_1968 Column_1969 Column_1970 Column_1971 Column_1972 Column_1973 Column_1974 Column_1975 Column_1976 Column_1977 Column_1978 Column_1979 Column_1980 Column_1981 Column_1982 Column_1983 Column_1984 Column_1985 Column_1986 Column_1987 Column_1988 Column_1989 Column_1990 Column_1991 Column_1992 Column_1993 Column_1994 Column_1995 Column_1996 Column_1997 Column_1998 Column_1999 Column_2000 Column_2001 Column_2002 Column_2003 Column_2004 Column_2005 Column_2006 Column_2007 Column_2008 Column_2009 Column_2010 Column_2011 Column_2012 Column_2013 Column_2014 Column_2015 Column_2016 Column_2017 Column_2018 Column_2019 Column_2020 Column_2021 Column_2022 Column_2023 Column_2024 Column_2025 Column_2026 Column_2027 Column_2028 Column_2029 Column_2030 Column_2031 Column_2032 Column_2033 Column_2034 Column_2035 Column_2036 Column_2037 Column_2038 Column_2039 Column_2040 Column_2041 Column_2042 Column_2043 Column_2044 Column_2045 Column_2046 Column_2047 Column_2048 Column_2049 Column_2050 Column_2051 Column_2052 Column_2053 Column_2054 Column_2055 Column_2056 Column_2057 Column_2058 Column_2059 Column_2060 Column_2061 Column_2062 Column_2063 Column_2064 Column_2065 Column_2066 Column_2067 Column_2068 Column_2069 Column_2070 Column_2071 Column_2072 Column_2073 Column_2074 Column_2075 Column_2076 Column_2077 Column_2078 Column_2079 Column_2080 Column_2081 Column_2082 Column_2083 Column_2084 Column_2085 Column_2086 Column_2087 Column_2088 Column_2089 Column_2090 Column_2091 Column_2092 Column_2093 Column_2094 Column_2095 Column_2096 Column_2097 Column_2098 Column_2099 Column_2100 Column_2101 Column_2102 Column_2103 Column_2104 Column_2105 Column_2106 Column_2107 Column_2108 Column_2109 Column_2110 Column_2111 Column_2112 Column_2113 Column_2114 Column_2115 Column_2116 Column_2117 Column_2118 Column_2119 Column_2120 Column_2121 Column_2122 Column_2123 Column_2124 Column_2125 Column_2126 Column_2127 Column_2128 Column_2129 Column_2130 Column_2131 Column_2132 Column_2133 Column_2134 Column_2135 Column_2136 Column_2137 Column_2138 Column_2139 Column_2140 Column_2141 Column_2142 Column_2143 Column_2144 Column_2145 Column_2146 Column_2147 Column_2148 Column_2149 Column_2150 Column_2151 Column_2152 Column_2153 Column_2154 Column_2155 Column_2156 Column_2157 Column_2158 Column_2159 Column_2160 Column_2161 Column_2162 Column_2163 Column_2164 Column_2165 Column_2166 Column_2167 Column_2168 Column_2169 Column_2170 Column_2171 Column_2172 Column_2173 Column_2174 Column_2175 Column_2176 Column_2177 Column_2178 Column_2179 Column_2180 Column_2181 Column_2182 Column_2183 Column_2184 Column_2185 Column_2186 Column_2187 Column_2188 Column_2189 Column_2190 Column_2191 Column_2192 Column_2193 Column_2194 Column_2195 Column_2196 Column_2197 Column_2198 Column_2199 Column_2200 Column_2201 Column_2202 Column_2203 Column_2204 Column_2205 Column_2206 Column_2207 Column_2208 Column_2209 Column_2210 Column_2211 Column_2212 Column_2213 Column_2214 Column_2215 Column_2216 Column_2217 Column_2218 Column_2219 Column_2220 Column_2221 Column_2222 Column_2223 Column_2224 Column_2225 Column_2226 Column_2227 Column_2228 Column_2229 Column_2230 Column_2231 Column_2232 Column_2233 Column_2234 Column_2235 Column_2236 Column_2237 Column_2238 Column_2239 Column_2240 Column_2241 Column_2242 Column_2243 Column_2244 Column_2245 Column_2246 Column_2247 Column_2248 Column_2249 Column_2250 Column_2251 Column_2252 Column_2253 Column_2254 Column_2255 Column_2256 Column_2257 Column_2258 Column_2259 Column_2260 Column_2261 Column_2262 Column_2263 Column_2264 Column_2265 Column_2266 Column_2267 Column_2268 Column_2269 Column_2270 Column_2271 Column_2272 Column_2273 Column_2274 Column_2275 Column_2276 Column_2277 Column_2278 Column_2279 Column_2280 Column_2281 Column_2282 Column_2283 Column_2284 Column_2285 Column_2286 Column_2287 Column_2288 Column_2289 Column_2290 Column_2291 Column_2292 Column_2293 Column_2294 Column_2295 Column_2296 Column_2297 Column_2298 Column_2299 Column_2300 Column_2301 Column_2302 Column_2303 Column_2304 Column_2305 Column_2306 Column_2307 Column_2308 Column_2309 Column_2310 Column_2311 Column_2312 Column_2313 Column_2314 Column_2315 Column_2316 Column_2317 Column_2318 Column_2319 Column_2320 Column_2321 Column_2322 Column_2323 Column_2324 Column_2325 Column_2326 Column_2327 Column_2328 Column_2329 Column_2330 Column_2331 Column_2332 Column_2333 Column_2334 Column_2335 Column_2336 Column_2337 Column_2338 Column_2339 Column_2340 Column_2341 Column_2342 Column_2343 Column_2344 Column_2345 Column_2346 Column_2347 Column_2348 Column_2349 Column_2350 Column_2351 Column_2352 Column_2353 Column_2354 Column_2355 Column_2356 Column_2357 Column_2358 Column_2359 Column_2360 Column_2361 Column_2362 Column_2363 Column_2364 Column_2365 Column_2366 Column_2367 Column_2368 Column_2369 Column_2370 Column_2371 Column_2372 Column_2373 Column_2374 Column_2375 Column_2376 Column_2377 Column_2378 Column_2379 Column_2380 Column_2381 Column_2382 Column_2383 Column_2384 Column_2385 Column_2386 Column_2387 Column_2388 Column_2389 Column_2390 Column_2391 Column_2392 Column_2393 Column_2394 Column_2395 Column_2396 Column_2397 Column_2398 Column_2399 Column_2400 Column_2401 Column_2402 Column_2403 Column_2404 Column_2405 Column_2406 Column_2407 Column_2408 Column_2409 Column_2410 Column_2411 Column_2412 Column_2413 Column_2414 Column_2415 Column_2416 Column_2417 Column_2418 Column_2419 Column_2420 Column_2421 Column_2422 Column_2423 Column_2424 Column_2425 Column_2426 Column_2427 Column_2428 Column_2429 Column_2430 Column_2431 Column_2432 Column_2433 Column_2434 Column_2435 Column_2436 Column_2437 Column_2438 Column_2439 Column_2440 Column_2441 Column_2442 Column_2443 Column_2444 Column_2445 Column_2446 Column_2447 Column_2448 Column_2449 Column_2450 Column_2451 Column_2452 Column_2453 Column_2454 Column_2455 Column_2456 Column_2457 Column_2458 Column_2459 Column_2460 Column_2461 Column_2462 Column_2463 Column_2464 Column_2465 Column_2466 Column_2467 Column_2468 Column_2469 Column_2470 Column_2471 Column_2472 Column_2473 Column_2474 Column_2475 Column_2476 Column_2477 Column_2478 Column_2479 Column_2480 Column_2481 Column_2482 Column_2483 Column_2484 Column_2485 Column_2486 Column_2487 Column_2488 Column_2489 Column_2490 Column_2491 Column_2492 Column_2493 Column_2494 Column_2495 Column_2496 Column_2497 Column_2498 Column_2499 Column_2500 Column_2501 Column_2502 Column_2503 Column_2504 Column_2505 Column_2506 Column_2507 Column_2508 Column_2509 Column_2510 Column_2511 Column_2512 Column_2513 Column_2514 Column_2515 Column_2516 Column_2517 Column_2518 Column_2519 Column_2520 Column_2521 Column_2522 Column_2523 Column_2524 Column_2525 Column_2526 Column_2527 Column_2528 Column_2529 Column_2530 Column_2531 Column_2532 Column_2533 Column_2534 Column_2535 Column_2536 Column_2537 Column_2538 Column_2539 Column_2540 Column_2541 Column_2542 Column_2543 Column_2544 Column_2545 Column_2546 Column_2547 Column_2548 Column_2549 Column_2550 Column_2551 Column_2552 Column_2553 Column_2554 Column_2555 Column_2556 Column_2557 Column_2558 Column_2559 Column_2560 Column_2561 Column_2562 Column_2563 Column_2564 Column_2565 Column_2566 Column_2567 Column_2568 Column_2569 Column_2570 Column_2571 Column_2572 Column_2573 Column_2574 Column_2575 Column_2576 Column_2577 Column_2578 Column_2579 Column_2580 Column_2581 Column_2582 Column_2583 Column_2584 Column_2585 Column_2586 Column_2587 Column_2588 Column_2589 Column_2590 Column_2591 Column_2592 Column_2593 Column_2594 Column_2595 Column_2596 Column_2597 Column_2598 Column_2599 Column_2600 Column_2601 Column_2602 Column_2603 Column_2604 Column_2605 Column_2606 Column_2607 Column_2608 Column_2609 Column_2610 Column_2611 Column_2612 Column_2613 Column_2614 Column_2615 Column_2616 Column_2617 Column_2618 Column_2619 Column_2620 Column_2621 Column_2622 Column_2623 Column_2624 Column_2625 Column_2626 Column_2627 Column_2628 Column_2629 Column_2630 Column_2631 Column_2632 Column_2633 Column_2634 Column_2635 Column_2636 Column_2637 Column_2638 Column_2639 Column_2640 Column_2641 Column_2642 Column_2643 Column_2644 Column_2645 Column_2646 Column_2647 Column_2648 Column_2649 Column_2650 Column_2651 Column_2652 Column_2653 Column_2654 Column_2655 Column_2656 Column_2657 Column_2658 Column_2659 Column_2660 Column_2661 Column_2662 Column_2663 Column_2664 Column_2665 Column_2666 Column_2667 Column_2668 Column_2669 Column_2670 Column_2671 Column_2672 Column_2673 Column_2674 Column_2675 Column_2676 Column_2677 Column_2678 Column_2679 Column_2680 Column_2681 Column_2682 Column_2683 Column_2684 Column_2685 Column_2686 Column_2687 Column_2688 Column_2689 Column_2690 Column_2691 Column_2692 Column_2693 Column_2694 Column_2695 Column_2696 Column_2697 Column_2698 Column_2699 Column_2700 Column_2701 Column_2702 Column_2703 Column_2704 Column_2705 Column_2706 Column_2707 Column_2708 Column_2709 Column_2710 Column_2711 Column_2712 Column_2713 Column_2714 Column_2715 Column_2716 Column_2717 Column_2718 Column_2719 Column_2720 Column_2721 Column_2722 Column_2723 Column_2724 Column_2725 Column_2726 Column_2727 Column_2728 Column_2729 Column_2730 Column_2731 Column_2732 Column_2733 Column_2734 Column_2735 Column_2736 Column_2737 Column_2738 Column_2739 Column_2740 Column_2741 Column_2742 Column_2743 Column_2744 Column_2745 Column_2746 Column_2747 Column_2748 Column_2749 Column_2750 Column_2751 Column_2752 Column_2753 Column_2754 Column_2755 Column_2756 Column_2757 Column_2758 Column_2759 Column_2760 Column_2761 Column_2762 Column_2763 Column_2764 Column_2765 Column_2766 Column_2767 Column_2768 Column_2769 Column_2770 Column_2771 Column_2772 Column_2773 Column_2774 Column_2775 Column_2776 Column_2777 Column_2778 Column_2779 Column_2780 Column_2781 Column_2782 Column_2783 Column_2784 Column_2785 Column_2786 Column_2787 Column_2788 Column_2789 Column_2790 Column_2791 Column_2792 Column_2793 Column_2794 Column_2795 Column_2796 Column_2797 Column_2798 Column_2799 Column_2800 Column_2801 Column_2802 Column_2803 Column_2804 Column_2805 Column_2806 Column_2807 Column_2808 Column_2809 Column_2810 Column_2811 Column_2812 Column_2813 Column_2814 Column_2815 Column_2816 Column_2817 Column_2818 Column_2819 Column_2820 Column_2821 Column_2822 Column_2823 Column_2824 Column_2825 Column_2826 Column_2827 Column_2828 Column_2829 Column_2830 Column_2831 Column_2832 Column_2833 Column_2834 Column_2835 Column_2836 Column_2837 Column_2838 Column_2839 Column_2840 Column_2841 Column_2842 Column_2843 Column_2844 Column_2845 Column_2846 Column_2847 Column_2848 Column_2849 Column_2850 Column_2851 Column_2852 Column_2853 Column_2854 Column_2855 Column_2856 Column_2857 Column_2858 Column_2859 Column_2860 Column_2861 Column_2862 Column_2863 Column_2864 Column_2865 Column_2866 Column_2867 Column_2868 Column_2869 Column_2870 Column_2871 Column_2872 Column_2873 Column_2874 Column_2875 Column_2876 Column_2877 Column_2878 Column_2879 Column_2880 Column_2881 Column_2882 Column_2883 Column_2884 Column_2885 Column_2886 Column_2887 Column_2888 Column_2889 Column_2890 Column_2891 Column_2892 Column_2893 Column_2894 Column_2895 Column_2896 Column_2897 Column_2898 Column_2899 Column_2900 Column_2901 Column_2902 Column_2903 Column_2904 Column_2905 Column_2906 Column_2907 Column_2908 Column_2909 Column_2910 Column_2911 Column_2912 Column_2913 Column_2914 Column_2915 Column_2916 Column_2917 Column_2918 Column_2919 Column_2920 Column_2921 Column_2922 Column_2923 Column_2924 Column_2925 Column_2926 Column_2927 Column_2928 Column_2929 Column_2930 Column_2931 Column_2932 Column_2933 Column_2934 Column_2935 Column_2936 Column_2937 Column_2938 Column_2939 Column_2940 Column_2941 Column_2942 Column_2943 Column_2944 Column_2945 Column_2946 Column_2947 Column_2948 Column_2949 Column_2950 Column_2951 Column_2952 Column_2953 Column_2954 Column_2955 Column_2956 Column_2957 Column_2958 Column_2959 Column_2960 Column_2961 Column_2962 Column_2963 Column_2964 Column_2965 Column_2966 Column_2967 Column_2968 Column_2969 Column_2970 Column_2971 Column_2972 Column_2973 Column_2974 Column_2975 Column_2976 Column_2977 Column_2978 Column_2979 Column_2980 Column_2981 Column_2982 Column_2983 Column_2984 Column_2985 Column_2986 Column_2987 Column_2988 Column_2989 Column_2990 Column_2991 Column_2992 Column_2993 Column_2994 Column_2995 Column_2996 Column_2997 Column_2998 Column_2999 Column_3000 Column_3001 Column_3002 Column_3003 Column_3004 Column_3005 Column_3006 Column_3007 Column_3008 Column_3009 Column_3010 Column_3011 Column_3012 Column_3013 Column_3014 Column_3015 Column_3016 Column_3017 Column_3018 Column_3019 Column_3020 Column_3021 Column_3022 Column_3023 Column_3024 Column_3025 Column_3026 Column_3027 Column_3028 Column_3029 Column_3030 Column_3031 Column_3032 Column_3033 Column_3034 Column_3035 Column_3036 Column_3037 Column_3038 Column_3039 Column_3040 Column_3041 Column_3042 Column_3043 Column_3044 Column_3045 Column_3046 Column_3047 Column_3048 Column_3049 Column_3050 Column_3051 Column_3052 Column_3053 Column_3054 Column_3055 Column_3056 Column_3057 Column_3058 Column_3059 Column_3060 Column_3061 Column_3062 Column_3063 Column_3064 Column_3065 Column_3066 Column_3067 Column_3068 Column_3069 Column_3070 Column_3071 Column_3072 Column_3073 Column_3074 Column_3075 Column_3076 Column_3077 Column_3078 Column_3079 Column_3080 Column_3081 Column_3082 Column_3083 Column_3084 Column_3085 Column_3086 Column_3087 Column_3088 Column_3089 Column_3090 Column_3091 Column_3092 Column_3093 Column_3094 Column_3095 Column_3096 Column_3097 Column_3098 Column_3099 Column_3100 Column_3101 Column_3102 Column_3103 Column_3104 Column_3105 Column_3106 Column_3107 Column_3108 Column_3109 Column_3110 Column_3111 Column_3112 Column_3113 Column_3114 Column_3115 Column_3116 Column_3117 Column_3118 Column_3119 Column_3120 Column_3121 Column_3122 Column_3123 Column_3124 Column_3125 Column_3126 Column_3127 Column_3128 Column_3129 Column_3130 Column_3131 Column_3132 Column_3133 Column_3134 Column_3135 Column_3136 Column_3137 Column_3138 Column_3139 Column_3140 Column_3141 Column_3142 Column_3143 Column_3144 Column_3145 Column_3146 Column_3147 Column_3148 Column_3149 Column_3150 Column_3151 Column_3152 Column_3153 Column_3154 Column_3155 Column_3156 Column_3157 Column_3158 Column_3159 Column_3160 Column_3161 Column_3162 Column_3163 Column_3164 Column_3165 Column_3166 Column_3167 Column_3168 Column_3169 Column_3170 Column_3171 Column_3172 Column_3173 Column_3174 Column_3175 Column_3176 Column_3177 Column_3178 Column_3179 Column_3180 Column_3181 Column_3182 Column_3183 Column_3184 Column_3185 Column_3186 Column_3187 Column_3188 Column_3189 Column_3190 Column_3191 Column_3192 Column_3193 Column_3194 Column_3195 Column_3196 Column_3197 Column_3198 Column_3199 Column_3200 Column_3201 Column_3202 Column_3203 Column_3204 Column_3205 Column_3206 Column_3207 Column_3208 Column_3209 Column_3210 Column_3211 Column_3212 Column_3213 Column_3214 Column_3215 Column_3216 Column_3217 Column_3218 Column_3219 Column_3220 Column_3221 Column_3222 Column_3223 Column_3224 Column_3225 Column_3226 Column_3227 Column_3228 Column_3229 Column_3230 Column_3231 Column_3232 Column_3233 Column_3234 Column_3235 Column_3236 Column_3237 Column_3238 Column_3239 Column_3240 Column_3241 Column_3242 Column_3243 Column_3244 Column_3245 Column_3246 Column_3247 Column_3248 Column_3249 Column_3250 Column_3251 Column_3252 Column_3253 Column_3254 Column_3255 Column_3256 Column_3257 Column_3258 Column_3259 Column_3260 Column_3261 Column_3262 Column_3263 Column_3264 Column_3265 Column_3266 Column_3267 Column_3268 Column_3269 Column_3270 Column_3271 Column_3272 Column_3273 Column_3274 Column_3275 Column_3276 Column_3277 Column_3278 Column_3279 Column_3280 Column_3281 Column_3282 Column_3283 Column_3284 Column_3285 Column_3286 Column_3287 Column_3288 Column_3289 Column_3290 Column_3291 Column_3292 Column_3293 Column_3294 Column_3295 Column_3296 Column_3297 Column_3298 Column_3299 Column_3300 Column_3301 Column_3302 Column_3303 Column_3304 Column_3305 Column_3306 Column_3307 Column_3308 Column_3309 Column_3310 Column_3311 Column_3312 Column_3313 Column_3314 Column_3315 Column_3316 Column_3317 Column_3318 Column_3319 Column_3320 Column_3321 Column_3322 Column_3323 Column_3324 Column_3325 Column_3326 Column_3327 Column_3328 Column_3329 Column_3330 Column_3331 Column_3332 Column_3333 Column_3334 Column_3335 Column_3336 Column_3337 Column_3338 Column_3339 Column_3340 Column_3341 Column_3342 Column_3343 Column_3344 Column_3345 Column_3346 Column_3347 Column_3348 Column_3349 Column_3350 Column_3351 Column_3352 Column_3353 Column_3354 Column_3355 Column_3356 Column_3357 Column_3358 Column_3359 Column_3360 Column_3361 Column_3362 Column_3363 Column_3364 Column_3365 Column_3366 Column_3367 Column_3368 Column_3369 Column_3370 Column_3371 Column_3372 Column_3373 Column_3374 Column_3375 Column_3376 Column_3377 Column_3378 Column_3379 Column_3380 Column_3381 Column_3382 Column_3383 Column_3384 Column_3385 Column_3386 Column_3387 Column_3388 Column_3389 Column_3390 Column_3391 Column_3392 Column_3393 Column_3394 Column_3395 Column_3396 Column_3397 Column_3398 Column_3399 Column_3400 Column_3401 Column_3402 Column_3403 Column_3404 Column_3405 Column_3406 Column_3407 Column_3408 Column_3409 Column_3410 Column_3411 Column_3412 Column_3413 Column_3414 Column_3415 Column_3416 Column_3417 Column_3418 Column_3419 Column_3420 Column_3421 Column_3422 Column_3423 Column_3424 Column_3425 Column_3426 Column_3427 Column_3428 Column_3429 Column_3430 Column_3431 Column_3432 Column_3433 Column_3434 Column_3435 Column_3436 Column_3437 Column_3438 Column_3439 Column_3440 Column_3441 Column_3442 Column_3443 Column_3444 Column_3445 Column_3446 Column_3447 Column_3448 Column_3449 Column_3450 Column_3451 Column_3452 Column_3453 Column_3454 Column_3455 Column_3456 Column_3457 Column_3458 Column_3459 Column_3460 Column_3461 Column_3462 Column_3463 Column_3464 Column_3465 Column_3466 Column_3467 Column_3468 Column_3469 Column_3470 Column_3471 Column_3472 Column_3473 Column_3474 Column_3475 Column_3476 Column_3477 Column_3478 Column_3479 Column_3480 Column_3481 Column_3482 Column_3483 Column_3484 Column_3485 Column_3486 Column_3487 Column_3488 Column_3489 Column_3490 Column_3491 Column_3492 Column_3493 Column_3494 Column_3495 Column_3496 Column_3497 Column_3498 Column_3499 Column_3500 Column_3501 Column_3502 Column_3503 Column_3504 Column_3505 Column_3506 Column_3507 Column_3508 Column_3509 Column_3510 Column_3511 Column_3512 Column_3513 Column_3514 Column_3515 Column_3516 Column_3517 Column_3518 Column_3519 Column_3520 Column_3521 Column_3522 Column_3523 Column_3524 Column_3525 Column_3526 Column_3527 Column_3528 Column_3529 Column_3530 Column_3531 Column_3532 Column_3533 Column_3534 Column_3535 Column_3536 Column_3537 Column_3538 Column_3539 Column_3540 Column_3541 Column_3542 Column_3543 Column_3544 Column_3545 Column_3546 Column_3547 Column_3548 Column_3549 Column_3550 Column_3551 Column_3552 Column_3553 Column_3554 Column_3555 Column_3556 Column_3557 Column_3558 Column_3559 Column_3560 Column_3561 Column_3562 Column_3563 Column_3564 Column_3565 Column_3566 Column_3567 Column_3568 Column_3569 Column_3570 Column_3571 Column_3572 Column_3573 Column_3574 Column_3575 Column_3576 Column_3577 Column_3578 Column_3579 Column_3580 Column_3581 Column_3582 Column_3583 Column_3584 Column_3585 Column_3586 Column_3587 Column_3588 Column_3589 Column_3590 Column_3591 Column_3592 Column_3593 Column_3594 Column_3595 Column_3596 Column_3597 Column_3598 Column_3599 Column_3600 Column_3601 Column_3602 Column_3603 Column_3604 Column_3605 Column_3606 Column_3607 Column_3608 Column_3609 Column_3610 Column_3611 Column_3612 Column_3613 Column_3614 Column_3615 Column_3616 Column_3617 Column_3618 Column_3619 Column_3620 Column_3621 Column_3622 Column_3623 Column_3624 Column_3625 Column_3626 Column_3627 Column_3628 Column_3629 Column_3630 Column_3631 Column_3632 Column_3633 Column_3634 Column_3635 Column_3636 Column_3637 Column_3638 Column_3639 Column_3640 Column_3641 Column_3642 Column_3643 Column_3644 Column_3645 Column_3646 Column_3647 Column_3648 Column_3649 Column_3650 Column_3651 Column_3652 Column_3653 Column_3654 Column_3655 Column_3656 Column_3657 Column_3658 Column_3659 Column_3660 Column_3661 Column_3662 Column_3663 Column_3664 Column_3665 Column_3666 Column_3667 Column_3668 Column_3669 Column_3670 Column_3671 Column_3672 Column_3673 Column_3674 Column_3675 Column_3676 Column_3677 Column_3678 Column_3679 Column_3680 Column_3681 Column_3682 Column_3683 Column_3684 Column_3685 Column_3686 Column_3687 Column_3688 Column_3689 Column_3690 Column_3691 Column_3692 Column_3693 Column_3694 Column_3695 Column_3696 Column_3697 Column_3698 Column_3699 Column_3700 Column_3701 Column_3702 Column_3703 Column_3704 Column_3705 Column_3706 Column_3707 Column_3708 Column_3709 Column_3710 Column_3711 Column_3712 Column_3713 Column_3714 Column_3715 Column_3716 Column_3717 Column_3718 Column_3719 Column_3720 Column_3721 Column_3722 Column_3723 Column_3724 Column_3725 Column_3726 Column_3727 Column_3728 Column_3729 Column_3730 Column_3731 Column_3732 Column_3733 Column_3734 Column_3735 Column_3736 Column_3737 Column_3738 Column_3739 Column_3740 Column_3741 Column_3742 Column_3743 Column_3744 Column_3745 Column_3746 Column_3747 Column_3748 Column_3749 Column_3750 Column_3751 Column_3752 Column_3753 Column_3754 Column_3755 Column_3756 Column_3757 Column_3758 Column_3759 Column_3760 Column_3761 Column_3762 Column_3763 Column_3764 Column_3765 Column_3766 Column_3767 Column_3768 Column_3769 Column_3770 Column_3771 Column_3772 Column_3773 Column_3774 Column_3775 Column_3776 Column_3777 Column_3778 Column_3779 Column_3780 Column_3781 Column_3782 Column_3783 Column_3784 Column_3785 Column_3786 Column_3787 Column_3788 Column_3789 Column_3790 Column_3791 Column_3792 Column_3793 Column_3794 Column_3795 Column_3796 Column_3797 Column_3798 Column_3799 Column_3800 Column_3801 Column_3802 Column_3803 Column_3804 Column_3805 Column_3806 Column_3807 Column_3808 Column_3809 Column_3810 Column_3811 Column_3812 Column_3813 Column_3814 Column_3815 Column_3816 Column_3817 Column_3818 Column_3819 Column_3820 Column_3821 Column_3822 Column_3823 Column_3824 Column_3825 Column_3826 Column_3827 Column_3828 Column_3829 Column_3830 Column_3831 Column_3832 Column_3833 Column_3834 Column_3835 Column_3836 Column_3837 Column_3838 Column_3839 Column_3840 Column_3841 Column_3842 Column_3843 Column_3844 Column_3845 Column_3846 Column_3847 Column_3848 Column_3849 Column_3850 Column_3851 Column_3852 Column_3853 Column_3854 Column_3855 Column_3856 Column_3857 Column_3858 Column_3859 Column_3860 Column_3861 Column_3862 Column_3863 Column_3864 Column_3865 Column_3866 Column_3867 Column_3868 Column_3869 Column_3870 Column_3871 Column_3872 Column_3873 Column_3874 Column_3875 Column_3876 Column_3877 Column_3878 Column_3879 Column_3880 Column_3881 Column_3882 Column_3883 Column_3884 Column_3885 Column_3886 Column_3887 Column_3888 Column_3889 Column_3890 Column_3891 Column_3892 Column_3893 Column_3894 Column_3895 Column_3896 Column_3897 Column_3898 Column_3899 Column_3900 Column_3901 Column_3902 Column_3903 Column_3904 Column_3905 Column_3906 Column_3907 Column_3908 Column_3909 Column_3910 Column_3911 Column_3912 Column_3913
feature_infos=[0:0] [0:0] [0:0] [0:0] [0:0] [17.541078567504883:36.348190307617188] [0:0] [0:0] [0:0] [0:0] [0:0] [0:0] [0:0] [0:0] [0:0] [0:0] [0:0] [0:0] [0:0] [0:0] [0:0] [0:0] [0:0] [0:0] [0:0] [0:0] [0:0] [0:0] [0:0] [0:0] [0:0] [0:0] [0:0] [0:0] [0:0] [7.9831323623657227:20.638147354125977] [0:0] [0:0] [0:0] [0:0] [0:0] [0:9.6053056716918945] [1.4247407913208008:7.5414600372314453] [0:0] [0:0] [0:0] [0.88415640592575073:14.250933647155762] [0:0] [0:0] [0:0] [0:0] [0:0] [0:0] [0:0] [0:0] [0:0] [0:0] [0:0] [0:0] [0:0] [0:0] [0:0] [0:0] [0:0] [0:0] [0:0] [0:0] [0:0] [0:0] [0:0] [0:0] [0:0] [0:0] [0:0] [0:0] [0:0] [0:0] [0:0] [0:0] [0:0] [0:0] [0:0] [0:0] [10.513997077941895:37.765445709228516] [0:0] [0:0] [0:0] [0:0] [0:0] [0:0] [0:0] [0:0] [0:0] [0:0] [0:0] [0:0] [0:0] [0:0] [0:0] [0:0] [0:0] [0:0] [0:0] [0:0] [0:0] [0:0] [0:0] [0:0] [0:0] [0:0] [0:0] [0:0] [0:0] [11.811581611633301:24.530988693237305] [0:0] [0:0] [0:0] [0:0] [0:0] [0:0] [0.99873244762420654:12.286558151245117] [0:0] [0:0] [0:0] [0:0] [0:0] [0:0] [0:0] [0:0] [0:2.0963325500488281] [0:0] [0:0] [0:0] [0:0] [0:2.6350018978118896] [0:2.773493766784668] [0.29592320322990417:2.6669900417327881] [0:0] [0:5.3354430198669434] [0:0] [0.24522861838340759:2.7102987766265869] [0.0058397967368364334:2.9431698322296143] [0:0] [0:0] [0:0] [0.43086525797843933:3.4818031787872314] [0:0.5894429087638855] [1.8853240013122559:7.3553500175476074] [5.1207337379455566:9.595585823059082] [0:0] [3.6261794567108154:7.6435666084289551] [0:0] [0:0] [0:0] [0:0] [0:0] [0:0] [0:0] [0:0] [0:0] [0.26477766036987305:2.3889963626861572] [0:2.6812329292297363] [1.0390305519104004:4.0810127258300781] [0:0] [0:0] [0.18062508106231689:1.9999997615814209] [0:3.4938137531280518] [0:2.3478686809539795] [0:0] [0:0] [0:2.9916341304779053] [0:3.0800871849060059] [0:0] [0:0] [0:0] [0:0] [1.2403422594070435:4.0297293663024902] [0:0] [0.13226296007633209:1.978657603263855] [0:0] [0:0] [0:0] [0:2.1546807289123535] [0:0] [0:0] [0:0] [0:0] [0:0] [0:0] [0:0] [0:0] [0:0.1979796439409256] [0:0] [0.064176768064498901:1.0744190216064453] [0:1.470521092414856] [0.16132718324661255:1.3262277841567993] [0:0.910480797290802] [0:0] [0.5557745099067688:1.6606667041778564] [0:0] [0:0] [0:0.98888081312179565] [0.54178774356842041:2.1480205059051514] [0:0] [0:1.8385905027389526] [0:0] [0.36547893285751343:1.4541875123977661] [0:0] [0:0] [0:0] [0:1.9901843070983887] [0:1.1124769449234009] [0:0.70295596122741699] [0:0] [0:0] [0:2.1359174251556396] [0:0] [0:1.0536330938339233] [0.88095879554748535:2.3164379596710205] [0:0] [0:0] [0:0] [0.32248333096504211:1.0964558124542236] [1.5559564828872681:2.9763214588165283] [0:0.031445953994989395] [0:0] [0:0] [0:2.0432801246643066] [0:0.85759878158569336] [0:0] [0:1.1153643131256104] [0:0] [0:1.9177672863006592] [0:2.4576809406280518] [0:0] [0:0.78401154279708862] [0:0] [0:0] [0:0] [0:0] [0:0] [0:0] [0.12468305230140686:2.6463932991027832] [0:0.92591762542724609] [0:0] [0:0] [0.48761799931526184:2.4183371067047119] [0:0] [0:1.5518689155578613] [0:0] [0:0] [0:0] [0:0.72225546836853027] [0:1.3974469900131226] [0:0] [0.37635344266891479:2.4738883972167969] [0:0.95852446556091309] [0:0] [0:0] [0:1.0172704458236694] [0:0] [0.061349198222160339:1.0494014024734497] [0:0] [0:0] [0.17313778400421143:2.2197220325469971] [0:0] [0:0.62510538101196289] [0.0043634618632495403:0.6444210410118103] [0:0] [0:0] [0.1801326721906662:0.70390897989273071] [0.33314302563667297:0.97058510780334473] [0.78820705413818359:1.975061297416687] [0.18159198760986328:2.1421387195587158] [0:1.880486011505127] [0.030318930745124817:1.3483177423477173] [1.0816677808761597:2.0793483257293701] [0:0] [0:1.7660845518112183] [0:0.00020556896924972534] [0:0] [0:0] [0:0.22376865148544312] [0:1.652296781539917] [0.26880991458892822:1.5150460004806519] [0:0] [0:0] [0:0] [0:0] [0:0] [0.12792167067527771:1.17295241355896] [0:0.88483762741088867] [0.69608616828918457:2.6709654331207275] [0.014423898421227932:1.0832536220550537] [0.19534292817115784:2.3894274234771729] [0:2.2503337860107422] [0:3.1150705814361572] [0:0] [0:0] [0:1.2375743389129639] [0:0] [0:0] [0:0.72751832008361816] [0:1.4793825149536133] [0:0] [0:0.038362197577953339] [0:1.1358575820922852] [0:0.50473469495773315] [0:0] [0.023945609107613564:1.0060642957687378] [0:0] [0:0.076355665922164917] [0:1.3436679840087891] [0:0] [0:0] [0:0] [0:0.052126321941614151] [0:0.2304389625787735] [0:0] [0:0] [-0.042260300000000001:0.63612299999999999] [-0.048558799999999999:0.63139199999999995] [-0.055517599999999993:0.62785000000000002] [-0.052352999999999997:0.63089099999999998] [-0.040607999999999998:0.63828799999999997] [-0.034516100000000001:0.64097599999999999] [-0.042618699999999995:0.63487700000000002] [-0.053855999999999994:0.62812200000000007] [-0.057699:0.62633400000000006] [-0.058482000000000006:0.62592999999999999] [-0.058515599999999994:0.625888] [-0.055381799999999995:0.62815699999999997] [-0.050047000000000001:0.63197700000000001] [-0.044444599999999994:0.63576599999999994] [-0.040496400000000002:0.63839199999999996] [-0.041609:0.63786799999999999] [-0.046195399999999998:0.63512500000000005] [-0.047614499999999997:0.63406300000000004] [-0.048243300000000003:0.63305500000000003] [-0.053698099999999999:0.62914899999999996] [-0.059410199999999996:0.62524899999999994] [-0.060471199999999996:0.62427100000000002] [-0.057686400000000006:0.62637500000000002] [-0.053916099999999995:0.62941999999999998] [-0.0527952:0.63020699999999996] [-0.054845400000000009:0.62861999999999996] [-0.056737300000000004:0.62734199999999996] [-0.055439800000000004:0.628243] [-0.054183100000000005:0.62862399999999996] [-0.057407500000000007:0.62576500000000002] [-0.061050199999999992:0.62336000000000003] [-0.061713800000000006:0.62350499999999998] [-0.063245599999999999:0.62273000000000001] [-0.066334899999999988:0.62079600000000001] [-0.067661100000000016:0.62042900000000001] [-0.066865100000000011:0.62140899999999999] [-0.064690499999999998:0.622942] [-0.058404099999999994:0.62703500000000001] [-0.049748800000000003:0.63261499999999993] [-0.047554600000000002:0.63432700000000009] [-0.050864199999999998:0.63276899999999991] [-0.052721699999999996:0.63130500000000001] [-0.056043700000000002:0.62814799999999993] [-0.062002099999999997:0.62389499999999998] [-0.065271900000000008:0.62184499999999998] [-0.065481600000000001:0.62154200000000004] [-0.065293699999999996:0.62170400000000003] [-0.064205700000000004:0.62295400000000001] [-0.059913699999999993:0.62591799999999997] [-0.055574999999999999:0.62782199999999999] [-0.056916999999999995:0.62585800000000003] [-0.061677800000000005:0.62260400000000005] [-0.064469900000000011:0.62112800000000001] [-0.0648281:0.62109999999999999] [-0.064310400000000004:0.62154100000000001] [-0.064055700000000007:0.62176699999999996] [-0.064368499999999995:0.62164700000000006] [-0.064187999999999995:0.62175000000000002] [-0.061945299999999995:0.62307900000000005] [-0.056147900000000008:0.62700600000000006] [-0.050463500000000001:0.630857] [-0.049361199999999994:0.63134499999999993] [-0.047718499999999997:0.632378] [-0.045417900000000004:0.63396200000000003] [-0.050714700000000001:0.63000800000000001] [-0.059391099999999995:0.62364700000000006] [-0.062752500000000003:0.62125299999999994] [-0.063069799999999995:0.621085] [-0.063966599999999998:0.62034800000000001] [-0.064684199999999997:0.619726] [-0.06381619999999999:0.62048199999999998] [-0.060718399999999999:0.62299499999999997] [-0.057102899999999998:0.62553700000000001] [-0.0558962:0.626139] [-0.054467799999999997:0.62703399999999998] [-0.047016099999999998:0.63170999999999999] [-0.037523000000000001:0.63737700000000008] [-0.0368987:0.63735799999999998] [-0.046769499999999999:0.63081599999999993] [-0.055788999999999998:0.62545699999999993] [-0.0540268:0.627467] [-0.046470999999999998:0.63259300000000007] [-0.044006699999999996:0.63354200000000005] [-0.047442400000000003:0.630575] [-0.052431699999999998:0.62693199999999993] [-0.057624599999999998:0.62353100000000006] [-0.060759400000000005:0.62157299999999993] [-0.061469500000000003:0.62065800000000004] [-0.062250400000000004:0.619336] [-0.063077300000000003:0.61854799999999999] [-0.062696100000000005:0.61917100000000003] [-0.061499699999999997:0.61978999999999995] [-0.060209300000000007:0.61977799999999994] [-0.059206899999999993:0.62020600000000004] [-0.058035199999999995:0.62209700000000001] [-0.053725500000000002:0.62637799999999999] [-0.047989599999999993:0.63023600000000002] [-0.048417300000000003:0.62906700000000004] [-0.054143600000000007:0.62516000000000005] [-0.057551300000000007:0.62339800000000001] [-0.054980499999999995:0.62537600000000004] [-0.046825900000000004:0.63076299999999996] [-0.038352699999999997:0.63607899999999995] [-0.035064900000000003:0.637957] [-0.035810900000000007:0.63746400000000003] [-0.037025699999999995:0.63672099999999998] [-0.0400603:0.63437299999999996] [-0.046534600000000002:0.62965599999999999] [-0.052312400000000002:0.62574399999999997] [-0.054262300000000006:0.62457799999999997] [-0.053645800000000007:0.62525799999999998] [-0.052597600000000001:0.625969] [-0.052488800000000002:0.62552799999999997] [-0.052600800000000003:0.62489099999999997] [-0.051753:0.62536099999999994] [-0.050614800000000001:0.62633300000000003] [-0.050578899999999996:0.62625699999999995] [-0.050950999999999996:0.62566100000000002] [-0.049250300000000004:0.62690699999999999] [-0.045841800000000002:0.62963599999999997] [-0.044333400000000002:0.63068100000000005] [-0.045350800000000004:0.62971499999999991] [-0.044405599999999996:0.63027299999999997] [-0.038092599999999997:0.63439699999999999] [-0.0298228:0.63952700000000007] [-0.027202499999999998:0.64096399999999998] [-0.0320673:0.63783599999999996] [-0.038534899999999997:0.63383500000000004] [-0.042322800000000001:0.63134299999999999] [-0.043693599999999999:0.63021000000000005] [-0.043371699999999999:0.63024799999999992] [-0.041998800000000003:0.63087299999999991] [-0.040593900000000002:0.63139100000000004] [-0.038586599999999999:0.63258400000000004] [-0.035419699999999991:0.63487099999999996] [-0.0331025:0.63682099999999997] [-0.032882500000000002:0.63724499999999995] [-0.035063699999999996:0.63537600000000005] [-0.038295700000000002:0.632602] [-0.038711099999999998:0.63261499999999993] [-0.036162300000000001:0.63521899999999998] [-0.033749599999999998:0.63706400000000007] [-0.033794199999999996:0.63623799999999997] [-0.035385400000000004:0.63453400000000004] [-0.034329600000000002:0.635297] [-0.031355599999999997:0.637235] [-0.030708099999999995:0.63757600000000003] [-0.0318634:0.63702700000000001] [-0.033671399999999997:0.63565699999999992] [-0.035804599999999999:0.63370000000000004] [-0.036446899999999997:0.63312100000000004] [-0.035605199999999997:0.63388900000000004] [-0.0347429:0.63467200000000001] [-0.0340781:0.63530699999999996] [-0.033407400000000004:0.63563599999999998] [-0.032911099999999999:0.63549999999999995] [-0.032611900000000006:0.63561999999999996] [-0.0326047:0.63607599999999997] [-0.032106599999999999:0.63693599999999995] [-0.030510900000000004:0.63806800000000008] [-0.029481299999999998:0.63829099999999994] [-0.029622599999999999:0.63801300000000005] [-0.030248900000000002:0.63785400000000003] [-0.031480300000000003:0.637019] [-0.032603:0.63562399999999997] [-0.031487599999999998:0.63569900000000001] [-0.027731400000000003:0.63830299999999995] [-0.024352800000000001:0.64111700000000005] [-0.023329800000000001:0.64217000000000002] [-0.024700699999999999:0.64125299999999996] [-0.027881700000000002:0.63885400000000003] [-0.0305875:0.63650699999999993] [-0.031602899999999996:0.63514099999999996] [-0.031542300000000002:0.63481200000000004] [-0.031092400000000003:0.63513699999999995] [-0.031006700000000002:0.63532100000000002] [-0.031073200000000002:0.63532900000000003] [-0.030511099999999999:0.63560799999999995] [-0.029580499999999999:0.63609399999999994] [-0.029092900000000001:0.63642100000000001] [-0.028887200000000002:0.63671599999999995] [-0.028506500000000001:0.63713799999999998] [-0.028445599999999995:0.63712899999999995] [-0.029029700000000002:0.63655200000000001] [-0.029224200000000002:0.63645200000000002] [-0.028391900000000005:0.63702000000000003] [-0.026683299999999997:0.63785500000000006] [-0.023646400000000001:0.63985600000000009] [-0.0204967:0.64239299999999999] [-0.019263599999999999:0.64352900000000002] [-0.020119600000000001:0.64284200000000002] [-0.022274799999999997:0.64107199999999998] [-0.024128200000000002:0.63964500000000002] [-0.024890799999999998:0.63905000000000001] [-0.0252333:0.63889099999999999] [-0.0250797:0.63933899999999999] [-0.024587000000000001:0.63986399999999999] [-0.025019699999999999:0.63922900000000005] [-0.026096699999999997:0.63789600000000002] [-0.0260921:0.63755200000000001] [-0.025188499999999999:0.63800800000000002] [-0.024347299999999999:0.63848400000000005] [-0.023469:0.63922299999999999] [-0.022470799999999999:0.64017400000000002] [-0.021724200000000003:0.64065399999999995] [-0.021712000000000002:0.640127] [-0.022061900000000002:0.63927400000000001] [-0.021742899999999999:0.63941800000000004] [-0.020517700000000003:0.640741] [-0.019181500000000001:0.64201799999999998] [-0.018360400000000002:0.6424979999999999] [-0.017753700000000001:0.64285600000000009] [-0.017341800000000001:0.64307999999999998] [-0.017453099999999999:0.64266299999999998] [-0.017752:0.64230600000000004] [-0.017791999999999999:0.64268400000000003] [-0.017622299999999997:0.64307199999999998] [-0.017347499999999998:0.64280400000000004] [-0.016819999999999998:0.64258700000000002] [-0.015829699999999999:0.64325500000000002] [-0.014589899999999999:0.64451400000000003] [-0.0140882:0.64505000000000001] [-0.014586799999999999:0.64437] [-0.015030700000000001:0.64357600000000004] [-0.015039400000000001:0.64328699999999994] [-0.015027700000000001:0.64332299999999998] [-0.0152135:0.64337299999999997] [-0.0154506:0.643231] [-0.015486700000000003:0.64322400000000002] [-0.0155692:0.64334899999999995] [-0.0161215:0.64310600000000007] [-0.017016900000000001:0.64257500000000001] [-0.017623300000000001:0.64228799999999997] [-0.017637:0.64231199999999999] [-0.017614599999999998:0.64218900000000001] [-0.018191099999999998:0.64154999999999995] [-0.019141700000000001:0.64051999999999998] [-0.0199042:0.63969900000000002] [-0.020335299999999997:0.639571] [-0.0204838:0.63973500000000005] [-0.020589099999999999:0.63953100000000007] [-0.020886200000000001:0.63909099999999996] [-0.021092300000000001:0.63883199999999996] [-0.020938499999999999:0.63878199999999996] [-0.020627:0.63874700000000006] [-0.020467200000000001:0.63879700000000006] [-0.020522599999999998:0.63915900000000003] [-0.020358399999999999:0.63970899999999997] [-0.019772499999999998:0.64010100000000003] [-0.019581299999999999:0.63999899999999998] [-0.020148800000000001:0.63953300000000002] [-0.020687299999999999:0.63924300000000001] [-0.020727900000000004:0.63933899999999999] [-0.020429599999999999:0.63972200000000001] [-0.020023800000000001:0.64020200000000005] [-0.0198032:0.64042900000000003] [-0.020072400000000001:0.64003599999999994] [-0.020644200000000001:0.63930200000000004] [-0.021006500000000001:0.63883599999999996] [-0.021190599999999997:0.63861499999999993] [-0.021266500000000001:0.63848700000000003] [-0.021028000000000002:0.63848500000000008] [-0.020750599999999998:0.63856099999999993] [-0.020727700000000002:0.638652] [-0.0208139:0.63849200000000006] [-0.0209166:0.63801799999999997] [-0.020905799999999999:0.63775800000000005] [-0.020765400000000003:0.63775300000000001] [-0.020823899999999999:0.63746899999999995] [-0.020917500000000002:0.63728999999999991] [-0.020669999999999997:0.63772399999999996] [-0.020407599999999998:0.63816300000000004] [-0.020390999999999999:0.63811400000000007] [-0.020441099999999997:0.637795] [-0.020490700000000001:0.63763500000000006] [-0.020378500000000001:0.637876] [-0.020008500000000002:0.63820100000000002] [-0.019777200000000002:0.63824899999999996] [-0.019865200000000003:0.63826300000000002] [-0.0200229:0.63841800000000004] [-0.0201601:0.63832700000000009] [-0.020246400000000001:0.63791399999999998] [-0.0202495:0.63761000000000001] [-0.020202399999999999:0.63763700000000001] [-0.0200521:0.63793900000000003] [-0.019934099999999996:0.63821499999999998] [-0.0200082:0.63808199999999993] [-0.020039500000000002:0.63766499999999993] [-0.019935899999999999:0.63734599999999997] [-0.019873599999999998:0.63720299999999996] [-0.019853400000000004:0.63713299999999995] [-0.019818799999999998:0.63712999999999997] [-0.019737400000000002:0.63733799999999996] [-0.0196245:0.63769900000000002] [-0.019581999999999999:0.63780800000000004] [-0.019629199999999999:0.63746899999999995] [-0.019549200000000003:0.63714099999999996] [-0.019239599999999999:0.63724199999999998] [-0.019108700000000003:0.637382] [-0.019292300000000002:0.63726899999999997] [-0.019330700000000003:0.63717600000000008] [-0.019211800000000001:0.63698199999999994] [-0.019277499999999999:0.63660300000000003] [-0.0193195:0.63659500000000002] [-0.019082400000000003:0.63693100000000002] [-0.018881599999999998:0.63697499999999996] [-0.018917400000000001:0.63673299999999999] [-0.018936500000000002:0.63650299999999993] [-0.018811700000000001:0.63631899999999997] [-0.018660099999999999:0.63626099999999997] [-0.018554299999999999:0.63640099999999999] [-0.018467899999999999:0.63669600000000004] [-0.018182:0.63737600000000005] [-0.017741900000000001:0.63851400000000003] [-0.017714400000000002:0.63814799999999994] [-0.018153799999999998:0.63675000000000004] [-0.0184642:0.63650699999999993] [-0.018371400000000003:0.63679600000000003] [-0.018147900000000002:0.63758999999999999] [-0.018076800000000001:0.63748300000000002] [-0.018075499999999998:0.63675999999999999] [-0.0180021:0.63658300000000001] [-0.017896000000000002:0.63678400000000002] [-0.017864500000000002:0.636791] [-0.017843900000000003:0.63655299999999992] [-0.017740200000000001:0.63629599999999997] [-0.0176854:0.63610200000000006] [-0.017675900000000001:0.636189] [-0.017585800000000002:0.63672700000000004] [-0.017467199999999999:0.63709099999999996] [-0.0174027:0.63717500000000005] [-0.0173822:0.63707599999999998] [-0.017378499999999998:0.63702999999999999] [-0.017390299999999997:0.63714999999999999] [-0.0174028:0.63728899999999999] [-0.0173565:0.63733799999999996] [-0.017230000000000002:0.63737500000000002] [-0.017116599999999999:0.63751099999999994] [-0.017051799999999999:0.63787199999999999] [-0.017006599999999997:0.63841899999999996] [-0.016893900000000003:0.63893999999999995] [-0.016698599999999997:0.63925100000000001] [-0.016711400000000001:0.63907400000000003] [-0.016941600000000001:0.63842900000000002] [-0.0170885:0.63773299999999999] [-0.017137400000000004:0.63731899999999997] [-0.0171054:0.63739799999999991] [-0.016999900000000002:0.63788900000000004] [-0.016994799999999997:0.63833899999999999] [-0.017105700000000001:0.63839999999999997] [-0.0171527:0.63819499999999996] [-0.0170715:0.63807000000000003] [-0.016975099999999996:0.63809199999999999] [-0.0169296:0.63808500000000001] [-0.016859599999999999:0.63802199999999998] [-0.016788999999999998:0.63797999999999999] [-0.0167794:0.637957] [-0.016766999999999997:0.63805699999999999] [-0.016805599999999997:0.63829199999999997] [-0.0169125:0.63834299999999999] [-0.016871900000000002:0.63817600000000008] [-0.016684599999999997:0.63820299999999996] [-0.016610699999999999:0.63836700000000002] [-0.016669999999999997:0.63835200000000003] [-0.016642700000000003:0.63850099999999999] [-0.016536000000000002:0.63893199999999994] [-0.016579099999999999:0.638992] [-0.016706599999999999:0.63869900000000002] [-0.016575900000000001:0.63884200000000002] [-0.0162431:0.63935500000000001] [-0.016173300000000002:0.63944299999999998] [-0.0164155:0.63906200000000002] [-0.016576199999999999:0.63876299999999997] [-0.0165586:0.63868800000000003] [-0.016565900000000001:0.63863999999999999] [-0.016647499999999999:0.63866400000000001] [-0.016660400000000002:0.63892799999999994] [-0.0165223:0.63915] [-0.016377100000000002:0.63908599999999993] [-0.016429200000000001:0.63894200000000001] [-0.016589400000000001:0.63878999999999997] [-0.016580399999999999:0.63863300000000001] [-0.016387400000000003:0.63855399999999995] [-0.0161607:0.63846700000000001] [-0.016030300000000001:0.63836400000000004] [-0.016097:0.63831800000000005] [-0.016224499999999999:0.63830500000000001] [-0.0162618:0.63842299999999996] [-0.0162705:0.63865499999999997] [-0.016306299999999999:0.638714] [-0.016359200000000001:0.63859100000000002] [-0.0163681:0.63855299999999993] [-0.016280300000000001:0.63863800000000004] [-0.0161496:0.63876199999999994] [-0.016031399999999998:0.63895900000000005] [-0.015907299999999999:0.63915500000000003] [-0.0157822:0.63918599999999992] [-0.015693600000000002:0.63916400000000007] [-0.015741499999999999:0.63919599999999999] [-0.0159901:0.63910200000000006] [-0.016199399999999999:0.63888] [-0.016146899999999999:0.63879900000000001] [-0.016013599999999999:0.63887499999999997] [-0.016009300000000001:0.63893100000000003] [-0.016075799999999998:0.63897499999999996] [-0.016132399999999998:0.63906300000000005] [-0.016160399999999998:0.63912899999999995] [-0.016103700000000002:0.63916000000000006] [-0.0159534:0.63924499999999995] [-0.015767300000000001:0.63923599999999992] [-0.015683000000000002:0.63899700000000004] [-0.015782299999999999:0.63875800000000005] [-0.0159282:0.63870899999999997] [-0.0160369:0.63883400000000001] [-0.016109499999999999:0.63897700000000002] [-0.0160638:0.63896600000000003] [-0.015927100000000003:0.638961] [-0.0158505:0.63917200000000007] [-0.0158797:0.63931899999999997] [-0.015944200000000002:0.63915200000000005] [-0.015956000000000001:0.63902000000000003] [-0.015895400000000001:0.63918999999999992] [-0.015828499999999999:0.63944999999999996] [-0.0157898:0.639594] [-0.015776200000000001:0.63959100000000002] [-0.015802700000000003:0.63950099999999999] [-0.01584:0.63953800000000005] [-0.015816399999999998:0.63978599999999997] [-0.015731000000000002:0.63991000000000009] [-0.015662700000000002:0.63982899999999998] [-0.015647399999999999:0.63979700000000006] [-0.015643000000000001:0.639714] [-0.015634200000000001:0.63953300000000002] [-0.015662300000000001:0.63948700000000003] [-0.015695799999999999:0.63955099999999998] [-0.0156775:0.63955899999999999] [-0.015682599999999998:0.63962200000000002] [-0.015774200000000002:0.63988800000000001] [-0.0158313:0.64006800000000008] [-0.015722399999999997:0.63989099999999999] [-0.015554699999999999:0.63965799999999995] [-0.015538399999999999:0.63961699999999999] [-0.015684:0.63956999999999997] [-0.015801599999999999:0.63951599999999997] [-0.015769799999999997:0.63965499999999997] [-0.015686500000000003:0.63983599999999996] [-0.015610599999999999:0.63978800000000002] [-0.015505000000000001:0.63959100000000002] [-0.015474399999999999:0.63956599999999997] [-0.015605100000000002:0.63981100000000002] [-0.015701300000000001:0.64009899999999997] [-0.015576900000000001:0.64035500000000001] [-0.015406599999999999:0.64057600000000003] [-0.015385900000000001:0.64058199999999998] [-0.015459700000000002:0.64043300000000003] [-0.015517500000000002:0.64041800000000004] [-0.015493:0.64054500000000003] [-0.015441499999999999:0.64049899999999993] [-0.015522799999999998:0.640158] [-0.015711700000000002:0.64019199999999998] [-0.015768399999999998:0.64032100000000003] [-0.015630399999999999:0.64050499999999999] [-0.0154821:0.64060699999999993] [-0.015458000000000001:0.64056899999999994] [-0.015510499999999998:0.64065499999999997] [-0.015502500000000001:0.64092399999999994] [-0.015476599999999998:0.64105800000000002] [-0.0155636:0.64092399999999994] [-0.015615899999999999:0.64070000000000005] [-0.015493100000000001:0.64061299999999999] [-0.0153922:0.64071800000000001] [-0.015426400000000002:0.64089300000000005] [-0.0154632:0.64115100000000003] [-0.015438200000000001:0.64133000000000007] [-0.015355799999999999:0.64116300000000004] [-0.015262799999999998:0.64091699999999996] [-0.015235200000000001:0.64110600000000006] [-0.015256:0.64164600000000005] [-0.015291800000000001:0.64186899999999991] [-0.015362899999999999:0.64170799999999995] [-0.015420500000000002:0.64175000000000004] [-0.015373400000000001:0.64206200000000002] [-0.0152602:0.642177] [-0.015239600000000001:0.64192799999999994] [-0.015330799999999999:0.64158800000000005] [-0.0153382:0.64144400000000001] [-0.015266999999999999:0.64153400000000005] [-0.0153037:0.64167099999999999] [-0.015368799999999998:0.64181999999999995] [-0.015298300000000001:0.64208500000000002] [-0.015145500000000001:0.64225200000000005] [-0.015029499999999999:0.64219399999999993] [-0.014955200000000002:0.64216700000000004] [-0.014940500000000001:0.64223599999999992] [-0.015005500000000001:0.64225100000000002] [-0.015058799999999999:0.642258] [-0.015077500000000001:0.64238200000000001] [-0.015089199999999999:0.64266699999999999] [-0.015061099999999999:0.642953] [-0.014996500000000001:0.64293100000000003] [-0.0149737:0.64275100000000007] [-0.015012200000000002:0.64281299999999997] [-0.015025499999999999:0.643123] [-0.0150086:0.64346199999999998] [-0.015025299999999998:0.64357500000000001] [-0.0150689:0.64344999999999997] [-0.015096500000000001:0.64339299999999999] [-0.015048799999999999:0.64352200000000004] [-0.014934200000000002:0.64359600000000006] [-0.014910099999999999:0.64344000000000001] [-0.014998900000000001:0.64326700000000003] [-0.015029799999999999:0.64334199999999997] [-0.0149394:0.64359600000000006] [-0.014804599999999999:0.64386999999999994] [-0.014748900000000001:0.64401700000000006] [-0.014798799999999999:0.64391899999999991] [-0.0148726:0.64373199999999997] [-0.014925899999999999:0.64369100000000001] [-0.0149255:0.64379399999999998] [-0.0148804:0.643926] [-0.0148469:0.644034] [-0.0148167:0.64410800000000001] [-0.0147035:0.64419599999999999] [-0.0145667:0.64433499999999999] [-0.0146061:0.64447900000000002] [-0.0147054:0.64454999999999996] [-0.014616399999999998:0.64450099999999999] [-0.014474600000000001:0.64449400000000001] [-0.014478100000000001:0.644536] [-0.014550899999999999:0.64446400000000004] [-0.014571000000000001:0.64448400000000006] [-0.014509899999999999:0.64465600000000001] [-0.014452600000000001:0.644791] [-0.0145062:0.64486100000000002] [-0.014588900000000002:0.64481299999999997] [-0.014587000000000001:0.64475199999999999] [-0.014560900000000002:0.644899] [-0.0145465:0.64511499999999999] [-0.0145285:0.64513699999999996] [-0.014524700000000001:0.64507499999999995] [-0.014477100000000001:0.645123] [-0.014424200000000002:0.64511800000000008] [-0.014467500000000001:0.645034] [-0.014522499999999999:0.64508699999999997] [-0.014546000000000002:0.64516099999999998] [-0.0145459:0.64516899999999999] [-0.014498599999999999:0.64525100000000002] [-0.0144972:0.64534099999999994] [-0.014534200000000001:0.64541700000000002] [-0.014489500000000001:0.64552500000000002] [-0.014388499999999999:0.64559300000000008] [-0.0142871:0.64562600000000003] [-0.014217500000000001:0.64562600000000003] [-0.014182:0.64567099999999999] [-0.014094399999999998:0.64575300000000002] [-0.0140594:0.64571999999999996] [-0.014224799999999999:0.64573000000000003] [-0.0143778:0.64593699999999998] [-0.014331899999999998:0.646208] [-0.014219999999999998:0.64643200000000001] [-0.0142285:0.64646899999999996] [-0.014366200000000001:0.64625500000000002] [-0.0144928:0.64602700000000002] [-0.014509899999999999:0.645984] [-0.0144315:0.64607199999999998] [-0.014385399999999998:0.64609099999999997] [-0.014438999999999999:0.64597299999999991] [-0.014499400000000001:0.64584399999999997] [-0.014488599999999999:0.64578000000000002] [-0.014394299999999999:0.64587899999999998] [-0.0142451:0.64618299999999995] [-0.014090700000000001:0.64650600000000003] [-0.0140143:0.64673999999999998] [-0.014076400000000001:0.64688199999999996] [-0.014184700000000001:0.64678400000000003] [-0.014219999999999998:0.64650299999999994] [-0.014184:0.646451] [-0.014194999999999999:0.64660899999999999] [-0.014329:0.64663100000000007] [-0.01444:0.64656099999999994] [-0.014393299999999999:0.64650399999999997] [-0.014312700000000001:0.64646400000000004] [-0.014290799999999999:0.646509] [-0.014237700000000001:0.64658500000000008] [-0.014143600000000001:0.64669500000000002] [-0.014119399999999999:0.64692299999999991] [-0.014175399999999999:0.64707599999999998] [-0.014214500000000001:0.64696899999999991] [-0.014196200000000003:0.64678900000000006] [-0.014143200000000002:0.64677099999999998] [-0.014082599999999999:0.64690600000000009] [-0.013970500000000002:0.64705800000000002] [-0.0138166:0.647146] [-0.013836299999999999:0.647204] [-0.014034200000000002:0.64732299999999998] [-0.014175700000000001:0.64745699999999995] [-0.014243899999999999:0.64744499999999994] [-0.0142963:0.64731099999999997] [-0.0142994:0.64726600000000001] [-0.0142743:0.64733300000000005] [-0.014271200000000001:0.64732400000000001] [-0.014296700000000001:0.64724199999999998] [-0.0143029:0.647289] [-0.014214700000000002:0.64743400000000007] [-0.014059299999999999:0.64745200000000003] [-0.0139889:0.64744499999999994] [-0.0140357:0.64763999999999999] [-0.014061099999999998:0.64783599999999997] [-0.014036600000000002:0.64786199999999994] [-0.014046799999999998:0.64784600000000003] [-0.014076499999999999:0.64778199999999997] [-0.0140763:0.64764100000000002] [-0.0140684:0.64755499999999999] [-0.014083000000000002:0.64761599999999997] [-0.0141061:0.64776] [-0.014111000000000002:0.64783199999999996] [-0.0140894:0.64776699999999998] [-0.014055799999999999:0.64765799999999996] [-0.014038399999999998:0.64760899999999999] [-0.014038200000000001:0.64766899999999994] [-0.014044799999999998:0.64782799999999996] [-0.0140482:0.64801999999999993] [-0.014058500000000002:0.64813900000000002] [-0.014126099999999999:0.64807099999999995] [-0.014222:0.64786899999999992] [-0.014218399999999999:0.64778800000000003] [-0.014091100000000001:0.64794700000000005] [-0.0139994:0.64812499999999995] [-0.014036099999999999:0.64813699999999996] [-0.0141139:0.64808999999999994] [-0.014147399999999999:0.64814300000000002] [-0.014132800000000001:0.64833200000000002] [-0.014086899999999999:0.64849199999999996] [-0.014001599999999999:0.64844899999999994] [-0.0139078:0.64836499999999997] [-0.0138678:0.64837600000000006] [-0.0138821:0.64838499999999999] [-0.013900999999999998:0.64840100000000001] [-0.0138862:0.64846700000000002] [-0.0138811:0.64857500000000001] [-0.0139314:0.64873199999999998] [-0.0139662:0.648868] [-0.0139273:0.64891499999999991] [-0.013915899999999998:0.64887499999999998] [-0.013946399999999999:0.64886100000000002] [-0.0138838:0.64902199999999999] [-0.0137935:0.64923900000000001] [-0.0138251:0.64923199999999992] [-0.013916399999999999:0.64906600000000003] [-0.013906399999999999:0.64900600000000008] [-0.013795099999999999:0.64901600000000004] [-0.013737600000000001:0.64894099999999999] [-0.0137471:0.64883100000000005] [-0.013742799999999999:0.64881999999999995] [-0.0137424:0.64888999999999997] [-0.0137149:0.64890900000000007] [-0.013628100000000001:0.64890100000000006] [-0.013636799999999999:0.64900500000000005] [-0.013783700000000001:0.64917400000000003] [-0.0138601:0.64932000000000001] [-0.0138192:0.64944000000000002] [-0.013815600000000001:0.64944999999999997] [-0.013873500000000002:0.64936199999999999] [-0.013888999999999999:0.64940399999999998] [-0.0138566:0.64959999999999996] [-0.0138315:0.64977299999999993] [-0.013791999999999999:0.649864] [-0.0137257:0.64979300000000006] [-0.01366:0.64963400000000004] [-0.013638299999999997:0.64962399999999998] [-0.013665399999999999:0.64971599999999996] [-0.013654599999999999:0.64980400000000005] [-0.0135689:0.64988599999999996] [-0.013484100000000001:0.64986499999999991] [-0.0135005:0.64978199999999997] [-0.013629499999999999:0.64976899999999993] [-0.013706600000000001:0.64982299999999993] [-0.013591999999999998:0.64993500000000004] [-0.013470500000000002:0.65007199999999998] [-0.013547299999999998:0.65007999999999999] [-0.013712899999999998:0.649953] [-0.013827200000000001:0.64996500000000001] [-0.013875200000000001:0.65022800000000003] [-0.013904:0.65047600000000005] [-0.0139183:0.65050699999999995] [-0.0138231:0.650397] [-0.0136416:0.65029899999999996] [-0.0135453:0.65030299999999996] [-0.013573599999999998:0.65039799999999992] [-0.0136089:0.650509] [-0.013615899999999998:0.65051499999999995] [-0.013617700000000002:0.65044199999999996] [-0.013624799999999999:0.65048500000000009] [-0.0136446:0.65061199999999997] [-0.013623500000000002:0.65066400000000002] [-0.0135686:0.65065899999999999] [-0.0135529:0.65063500000000007] [-0.013588599999999999:0.65062399999999998] [-0.013668100000000001:0.65070899999999998] [-0.013760299999999998:0.65082200000000001] [-0.013759100000000002:0.65079399999999998] [-0.013619200000000001:0.65064999999999995] [-0.013480600000000001:0.65056700000000001] [-0.013484999999999999:0.65066400000000002] [-0.013581999999999999:0.65092399999999995] [-0.013627600000000002:0.65116499999999999] [-0.013537299999999999:0.651223] [-0.013345500000000001:0.65118900000000002] [-0.013194299999999999:0.65123299999999995] [-0.013146700000000001:0.65131600000000001] [-0.0131588:0.65134700000000001] [-0.013257399999999999:0.65133599999999992] [-0.013409899999999999:0.65132900000000005] [-0.013473599999999999:0.65137] [-0.013446200000000002:0.65142100000000003] [-0.0134214:0.65144799999999992] [-0.0133746:0.65148400000000006] [-0.0132666:0.65152200000000005] [-0.013168899999999999:0.65158400000000005] [-0.013160900000000001:0.651675] [-0.013245500000000002:0.65178400000000003] [-0.013341:0.65187899999999999] [-0.0133781:0.651868] [-0.0133601:0.651806] [-0.0132888:0.65179200000000004] [-0.0131757:0.65181800000000001] [-0.013125700000000001:0.651895] [-0.013227700000000002:0.651972] [-0.0133597:0.65198299999999998] [-0.013357399999999998:0.65198599999999995] [-0.0132546:0.65203699999999998] [-0.013183000000000002:0.65204399999999996] [-0.013187200000000001:0.65203] [-0.013202:0.65221899999999999] [-0.013188999999999999:0.65257700000000007] [-0.013172899999999998:0.65281800000000001] [-0.0131585:0.65282299999999993] [-0.013135299999999997:0.65273100000000006] [-0.0131004:0.65264999999999995] [-0.0130844:0.65254699999999999] [-0.0131042:0.65249399999999991] [-0.013078399999999999:0.65255200000000002] [-0.0129748:0.65267399999999998] [-0.0128697:0.65283999999999998] [-0.012833900000000001:0.65293100000000004] [-0.012913999999999998:0.65290200000000009] [-0.013022200000000001:0.65296100000000001] [-0.013011099999999999:0.653142] [-0.0129094:0.65320400000000001] [-0.012812700000000002:0.65310400000000002] [-0.012781299999999999:0.65303299999999997] [-0.0128501:0.65307599999999999] [-0.012952799999999999:0.65321800000000008] [-0.012997899999999998:0.65337900000000004] [-0.012971399999999999:0.65346800000000005] [-0.0128977:0.65350699999999995] [-0.012817600000000002:0.65344499999999994] [-0.012745999999999999:0.65332000000000001] [-0.012665799999999998:0.65342700000000009] [-0.0126126:0.65377799999999997] [-0.012628:0.65404899999999999] [-0.0126801:0.65409099999999998] [-0.012673299999999998:0.65403999999999995] [-0.012574:0.65407899999999997] [-0.012518600000000001:0.654196] [-0.012554600000000001:0.65427299999999999] [-0.012570399999999999:0.654331] [-0.012593999999999999:0.65437299999999998] [-0.012665600000000001:0.65431499999999998] [-0.0126874:0.65424300000000002] [-0.0126374:0.65427599999999997] [-0.0125962:0.65436800000000006] [-0.0125927:0.65446899999999997] [-0.012596600000000001:0.65457200000000004] [-0.012568299999999999:0.65463000000000005] [-0.0125057:0.65461400000000003] [-0.0124791:0.65459200000000006] [-0.012480700000000001:0.65463800000000005] [-0.012417399999999999:0.65471199999999996] [-0.0122991:0.65468500000000007] [-0.012221600000000001:0.65463199999999999] [-0.0122244:0.65476999999999996] [-0.012241799999999999:0.65497299999999992] [-0.0122475:0.65500600000000009] [-0.0122694:0.65498100000000004] [-0.012273899999999999:0.65500200000000008] [-0.012240299999999999:0.654999] [-0.012182799999999999:0.65503199999999995] [-0.012133:0.65515900000000005] [-0.0121137:0.65528599999999992] [-0.012083400000000001:0.65535299999999996] [-0.012048:0.655339] [-0.012064499999999999:0.65529499999999996] [-0.0120949:0.65531099999999998] [-0.012065799999999998:0.65536899999999998] [-0.011966299999999999:0.655443] [-0.011837200000000001:0.65557299999999996] [-0.011733200000000001:0.65578199999999998] [-0.0116639:0.65601699999999996] [-0.0116334:0.65609899999999999] [-0.0116466:0.65594600000000003] [-0.0116475:0.65581299999999998] [-0.011583400000000001:0.655914] [-0.011496700000000002:0.65612199999999998] [-0.011425399999999999:0.65631700000000004] [-0.011339100000000001:0.65650799999999998] [-0.0112671:0.65664500000000003] [-0.011229299999999999:0.65668900000000008] [-0.011159799999999999:0.65668900000000008] [-0.0110461:0.65667399999999998] [-0.010915299999999999:0.65672200000000003] [-0.010790600000000001:0.6569020000000001] [-0.010724299999999999:0.65711900000000001] [-0.010729600000000001:0.657219] [-0.010686299999999999:0.65720200000000006] [-0.0105161:0.65721400000000008] [-0.010378399999999999:0.65731099999999998] [-0.0104113:0.65746000000000004] [-0.010493899999999999:0.65763500000000008] [-0.010468999999999999:0.65773999999999999] [-0.0103634:0.657752] [-0.010276799999999999:0.65774500000000002] [-0.010255999999999999:0.65769100000000003] [-0.0102839:0.65759599999999996] [-0.010312100000000001:0.65756700000000001] [-0.010312100000000001:0.65768900000000008] [-0.010301100000000001:0.65786] [-0.010332700000000002:0.6579020000000001] [-0.010410899999999999:0.65788199999999997] [-0.0104683:0.65787799999999996] [-0.0104665:0.65786499999999992] [-0.010421700000000001:0.657941] [-0.010377500000000001:0.65808699999999998] [-0.010326100000000001:0.65814600000000001] [-0.010226600000000001:0.65813900000000003] [-0.010138899999999999:0.65818900000000002] [-0.010099200000000001:0.65828900000000001] [-0.0100485:0.65834099999999995] [-0.0099801400000000002:0.65836600000000001] [-0.0099009200000000006:0.65844799999999992] [-0.0098048900000000001:0.65856999999999999] [-0.0097149799999999998:0.65866899999999995] [-0.0096449299999999995:0.65872799999999998] [-0.0095890100000000002:0.65878999999999999] [-0.0095149299999999996:0.65893500000000005] [-0.0094144599999999995:0.65917999999999999] [-0.0093243900000000001:0.65937600000000007] [-0.0092613999999999995:0.65942600000000007] [-0.00920407:0.6594270000000001] [-0.0091064600000000002:0.65949799999999992] [-0.0089887600000000002:0.65965600000000002] [-0.0089232999999999986:0.65981499999999993] [-0.0088856400000000002:0.65990000000000004] [-0.0088140900000000001:0.65994399999999998] [-0.0087278900000000003:0.66002399999999994] [-0.0086657599999999998:0.66017999999999999] [-0.0086307799999999994:0.66036300000000003] [-0.0085956499999999998:0.66045799999999999] [-0.0085309800000000005:0.66045600000000004] [-0.0084546099999999996:0.66046199999999999] [-0.0083939800000000005:0.66051199999999999] [-0.0083658299999999994:0.66056199999999998] [-0.0083664399999999993:0.66061800000000004] [-0.0083676900000000005:0.660721] [-0.0083992600000000004:0.66079300000000007] [-0.0084936200000000003:0.660775] [-0.0085779199999999993:0.66079399999999999] [-0.0085674099999999993:0.660825] [-0.0085146100000000006:0.66064299999999998] [-0.0085151500000000008:0.66039700000000001] [-0.0085333400000000004:0.66044899999999995] [-0.0085417199999999992:0.66063900000000009] [-0.0085544999999999996:0.66062399999999999] [-0.0085325699999999997:0.66050200000000003] [-0.0085108300000000005:0.66053400000000007] [-0.0085641699999999994:0.66070299999999993] [-0.0086565600000000006:0.66080899999999998] [-0.0086978300000000001:0.660825] [-0.00865375:0.66084399999999999] [-0.0085732499999999993:0.66090300000000002] [-0.0085569099999999992:0.660964] [-0.0086116500000000002:0.66094200000000003] [-0.0086411700000000001:0.66089600000000004] [-0.0086448099999999993:0.66091099999999992] [-0.0086460100000000008:0.66098500000000004] [-0.00859679:0.66106899999999991] [-0.0085007699999999995:0.66111300000000006] [-0.0084219700000000008:0.66120699999999999] [-0.0084163899999999993:0.66135200000000005] [-0.0084693600000000004:0.66137299999999999] [-0.0085038200000000005:0.66128399999999998] [-0.0084948899999999997:0.66121300000000005] [-0.0084859600000000007:0.66122199999999998] [-0.0084794599999999994:0.66135299999999997] [-0.0084327399999999993:0.66154199999999996] [-0.0083965499999999992:0.66164699999999999] [-0.0084446199999999999:0.6616479999999999] [-0.0084881399999999999:0.66168400000000005] [-0.0084389300000000007:0.66179399999999999] [-0.0083610899999999998:0.66180299999999992] [-0.0082894300000000004:0.66173300000000002] [-0.00820654:0.66180899999999998] [-0.0081505199999999996:0.66194500000000001] [-0.0081607099999999998:0.66196699999999997] [-0.0082057899999999993:0.66195899999999996] [-0.0081885299999999994:0.66199300000000005] [-0.00807627:0.66206599999999993] [-0.0079432800000000005:0.66217700000000002] [-0.0078433200000000008:0.66225500000000004] [-0.0077899500000000003:0.66229799999999994] [-0.0077888599999999999:0.66235699999999997] [-0.0078277399999999997:0.66241700000000003] [-0.0078713600000000009:0.66247100000000003] [-0.0078661700000000005:0.66253200000000001] [-0.0077858900000000002:0.66258600000000001] [-0.0076693400000000002:0.66259899999999994] [-0.0075817899999999997:0.66257200000000005] [-0.007509899999999999:0.66254000000000002] [-0.00741583:0.66255500000000001] [-0.0073467300000000001:0.66266599999999998] [-0.00731798:0.66280600000000001] [-0.0072765800000000004:0.66289300000000007] [-0.0072209500000000003:0.66295100000000007] [-0.0071514200000000003:0.66304700000000005] [-0.0070428299999999999:0.66325299999999998] [-0.0069426999999999996:0.66347500000000004] [-0.0068852799999999997:0.66354399999999991] [-0.0068086099999999997:0.66354599999999997] [-0.0067190399999999999:0.66360600000000003] [-0.0066843099999999997:0.66365699999999994] [-0.0066610300000000001:0.66369299999999998] [-0.0066133900000000002:0.66379999999999995] [-0.0065781199999999998:0.66397799999999996] [-0.0065328499999999998:0.66412299999999991] [-0.0064660500000000001:0.664103] [-0.0064285200000000001:0.663991] [-0.0064519699999999996:0.66398900000000005] [-0.0065304600000000001:0.66405200000000009] [-0.0066298399999999997:0.66400100000000006] [-0.0067022799999999997:0.66391999999999995] [-0.0067130599999999999:0.66397700000000004] [-0.0066828:0.66407299999999991] [-0.0066580600000000004:0.66408199999999995] [-0.0066244800000000003:0.664049] [-0.0065725699999999998:0.66400899999999996] [-0.0065752700000000002:0.66401499999999991] [-0.0066507600000000004:0.66408999999999996] [-0.0067207999999999999:0.66411300000000006] [-0.0067442800000000001:0.664049] [-0.0066891900000000002:0.66400800000000004] [-0.0065648199999999999:0.66406799999999999] [-0.0064845199999999997:0.66422300000000001] [-0.0064736899999999998:0.66439899999999996] [-0.0064499600000000002:0.66452299999999997] [-0.0063986999999999994:0.66458100000000009] [-0.0063575300000000001:0.66457600000000006] [-0.0063282:0.66454299999999999] [-0.0062947100000000002:0.66458100000000009] [-0.0062703000000000004:0.66473900000000008] [-0.0062675999999999999:0.66490700000000003] [-0.0062461900000000004:0.66495100000000007] [-0.0061913899999999997:0.66489100000000001] [-0.0061352500000000001:0.66483400000000004] [-0.0060713199999999998:0.66483400000000004] [-0.0059753999999999996:0.66487600000000002] [-0.0058713599999999999:0.66493000000000002] [-0.00581293:0.664991] [-0.0058027299999999999:0.66508900000000004] [-0.0058133100000000004:0.66524399999999995] [-0.0058169199999999997:0.66535900000000003] [-0.0057728800000000002:0.66537899999999994] [-0.0056914799999999996:0.66535299999999997] [-0.0056271000000000003:0.66530699999999998] [-0.0055954200000000003:0.66533199999999992] [-0.0055659200000000002:0.66544599999999998] [-0.0055266200000000003:0.66559000000000001] [-0.0054836000000000008:0.66574200000000006] [-0.0054504699999999998:0.66582399999999997] [-0.0054542699999999998:0.66586000000000001] [-0.0055016199999999996:0.665906] [-0.0055366699999999996:0.66589399999999999] [-0.0054863200000000003:0.66584600000000005] [-0.00540049:0.66587799999999997] [-0.0053503400000000003:0.66599399999999997] [-0.0052936499999999996:0.66608100000000003] [-0.0052060099999999996:0.66613900000000004] [-0.00513555:0.666215] [-0.0050601500000000002:0.66627199999999998] [-0.0049315299999999999:0.66635500000000003] [-0.0048490399999999998:0.66651099999999996] [-0.0048577400000000001:0.66664799999999991] [-0.0048570200000000001:0.66668100000000008] [-0.0048037100000000001:0.66666800000000004] [-0.0047291199999999999:0.66671400000000003] [-0.0046680200000000002:0.666798] [-0.0046281999999999998:0.66684100000000002] [-0.0046257399999999997:0.66687600000000002] [-0.0046505499999999998:0.66695400000000005] [-0.0046284799999999999:0.66702700000000004] [-0.0045582299999999999:0.66707299999999992] [-0.0045155000000000004:0.66707299999999992] [-0.0044931800000000003:0.66706299999999996] [-0.0044728600000000004:0.66714799999999996] [-0.00446518:0.66727799999999993] [-0.00442181:0.66733799999999999] [-0.0043309500000000001:0.66736000000000006] [-0.00422464:0.66744899999999996] [-0.0041517699999999999:0.66758700000000004] [-0.0041613900000000001:0.66765600000000003] [-0.0042263800000000001:0.66764299999999999] [-0.0042586999999999998:0.66766700000000001] [-0.0042452599999999998:0.66776499999999994] [-0.0042407900000000004:0.66778900000000008] [-0.0042084899999999996:0.66773500000000008] [-0.0041120100000000001:0.667713] [-0.0039610100000000001:0.66773900000000008] [-0.0038454800000000001:0.66776099999999994] [-0.0039222700000000003:0.66773500000000008] [-0.0041279400000000001:0.66773900000000008] [-0.0042158999999999999:0.66785600000000001] [-0.0040793499999999998:0.668018] [-0.0038753799999999999:0.66814099999999998] [-0.0037497400000000001:0.66821799999999998] [-0.0036380800000000001:0.668292] [-0.0035751099999999998:0.66835900000000004] [-0.0036613399999999999:0.66842699999999999] [-0.0036871400000000002:0.66856300000000002] [-0.00358765:0.66864999999999997] [-0.0035935899999999998:0.66859799999999991] [-0.0036160900000000002:0.66861499999999996] [-0.0034800500000000002:0.66877500000000001] [-0.0033518900000000002:0.66890799999999995] [-0.0034808:0.66884600000000005] [-0.00365833:0.66872500000000001] [-0.0035793800000000001:0.66878400000000005] [-0.0034070099999999998:0.66893599999999998] [-0.0033011899999999999:0.669049] [-0.0032240099999999998:0.66912799999999995] [-0.0029886100000000001:0.66933799999999999] [-0.0029067799999999999:0.669435] [-0.0034281400000000001:0.66906699999999997] [-0.0038465299999999999:0.66879699999999997] [-0.0037453000000000005:0.66888800000000004] [-0.0035683099999999999:0.66895700000000002] [-0.0033200500000000002:0.66908199999999995] [-0.002993:0.66930900000000004] [-0.0027617499999999999:0.66951000000000005] [-0.0024650700000000002:0.66986199999999996] [-0.0024432199999999999:0.670041] [-0.0032557100000000002:0.66941099999999998] [-0.0037472299999999998:0.66886999999999996] [-0.0030746599999999999:0.66931000000000007] [-0.0025234599999999999:0.66979100000000003] [-0.0026515200000000001:0.66975600000000002] [-0.0027072200000000002:0.66975699999999994] [-0.0025264699999999998:0.66993800000000003] [-0.0026180600000000002:0.66988000000000003] [-0.0029395599999999999:0.66964000000000001] [-0.0028900100000000001:0.66972200000000004] [-0.0026728400000000001:0.669929] [-0.00250096:0.67005800000000004] [-0.0021480700000000002:0.67031499999999999] [-0.0019858100000000002:0.67041800000000007] [-0.0021401699999999998:0.670269] [-0.00243311:0.67007499999999998] [-0.00266219:0.66998999999999997] [-0.0026813399999999999:0.67004799999999998] [-0.00288376:0.66993500000000006] [-0.0026850899999999998:0.67008100000000004] [-0.0020092299999999999:0.67059499999999994] [-0.0022109299999999998:0.67056700000000002] [-0.0024553700000000001:0.670543] [-0.00190189:0.67098999999999998] [-0.0021421000000000001:0.67074] [-0.0028294599999999998:0.670207] [-0.00245422:0.67050399999999999] [-0.00174033:0.67101099999999991] [-0.0014645999999999999:0.67124099999999998] [-0.0012797000000000002:0.67151499999999997] [-0.00083612699999999999:0.67200199999999999] [-0.00070927800000000004:0.67209099999999999] [-0.0015487999999999999:0.67128900000000002] [-0.0024656499999999998:0.67052200000000006] [-0.0026787899999999999:0.67045200000000005] [-0.0023315200000000001:0.67083500000000007] [-0.0016820299999999999:0.67142100000000005] [-0.0013396199999999999:0.671713] [-0.0012717:0.67171999999999998] [-0.00099080299999999995:0.67191099999999992] [-0.00059269699999999999:0.67218599999999995] [-0.00050543699999999997:0.67214799999999997] [-0.00112469:0.67163200000000001] [-0.0018017199999999999:0.67119099999999998] [-0.0014080200000000001:0.67158300000000004] [-0.00048766599999999999:0.67231800000000008] [-0.00044225199999999997:0.672315] [-0.0010716199999999999:0.67181099999999994] [-0.00106999:0.67186000000000001] [-0.00032124699999999998:0.67249099999999995] [0.00016862599999999998:0.67289900000000002] [-0.00035267499999999999:0.67255200000000004] [-0.00110611:0.67205200000000009] [-0.00094292499999999995:0.67225000000000001] [-0.00022228499999999999:0.67281599999999997] [0.00034744400000000003:0.67316399999999998] [0.00067608899999999994:0.67335500000000004] [0.00078512299999999998:0.67347500000000005] [0.00063515399999999997:0.67335600000000007] [0.00059722799999999999:0.67325699999999999] [0.00096076699999999996:0.67348599999999992] [0.0015525000000000001:0.67392700000000005] [0.00188882:0.67419200000000001] [0.0013300600000000001:0.67378100000000007] [0.00072376600000000004:0.67333900000000002] [0.0012314400000000001:0.67374400000000001] [0.0022047400000000002:0.67450299999999996] [0.0023752199999999999:0.67468500000000009] [0.0014566799999999999:0.67407099999999998] [0.00142198:0.67412499999999997] [0.0026146999999999998:0.67507499999999998] [0.0026528599999999999:0.67504500000000001] [0.0021530299999999998:0.67454700000000001] [0.0029331999999999995:0.67514399999999997] [0.0039357300000000001:0.67603199999999997] [0.0044941099999999999:0.67655200000000004] [0.0047934300000000004:0.67678700000000003] [0.0046377900000000001:0.676651] [0.0048000300000000003:0.67680799999999997] [0.0056215400000000004:0.67753699999999994] [0.0062644199999999997:0.67811499999999991] [0.0066222299999999998:0.67837899999999995] [0.0069533800000000003:0.67856499999999997] [0.0072816900000000004:0.67875799999999997] [0.0077499999999999999:0.679037] [0.0084694799999999997:0.67944599999999999] [0.0090768299999999993:0.67977200000000004] [0.0090863100000000002:0.67966499999999996] [0.0091107900000000006:0.67953399999999997] [0.0098222799999999992:0.679921] [0.01068:0.68045900000000004] [0.011215799999999998:0.68074000000000001] [0.0117155:0.68094200000000005] [0.012433:0.68123999999999996] [0.0133493:0.68163899999999999] [0.014068799999999999:0.68193500000000007] [0.014191:0.68187700000000007] [0.014468100000000001:0.68197700000000006] [0.015356399999999999:0.68248599999999993] [0.016219799999999999:0.68287900000000001] [0.0170855:0.68323900000000004] [0.0180623:0.68369099999999994] [0.018941699999999999:0.68404300000000007] [0.019902599999999999:0.68445699999999998] [0.020938400000000003:0.68497200000000003] [0.0219239:0.68546700000000005] [0.022824500000000001:0.68585299999999993] [0.023706099999999997:0.68664700000000001] [0.0248338:0.68818699999999999] [0.025742500000000001:0.68945000000000001] [0.025968099999999997:0.68970799999999999] [0.026466399999999998:0.69057999999999997] [0.027888099999999996:0.69307600000000003] [0.029437000000000001:0.69573399999999996] [0.03005:0.69670799999999999] [0.030234699999999996:0.69684799999999991] [0.031399500000000004:0.698712] [0.032621400000000002:0.70069099999999995] [0.032736599999999998:0.70071000000000006] [0.032796899999999997:0.70054399999999994] [0.033282199999999998:0.70120700000000002] [0.033930000000000002:0.70251300000000005] [0.034768500000000001:0.70430100000000007] [0.035443999999999996:0.70552999999999999] [0.035871699999999999:0.706125] [0.036175499999999999:0.70649799999999996] [0.036156599999999997:0.70623900000000006] [0.0360481:0.70589299999999999] [0.036360799999999999:0.70650100000000005] [0.036501499999999999:0.70662700000000001] [0.035971699999999995:0.70523400000000003] [0.035804599999999999:0.70481199999999999] [0.036201699999999996:0.70570699999999997] [0.036291699999999996:0.70584099999999994] [0.036107099999999996:0.70525000000000004] [0.036102300000000004:0.70516099999999993] [0.036315399999999998:0.70556700000000006] [0.036564899999999997:0.70585299999999995] [0.036468:0.70528800000000003] [0.035545099999999996:0.70302500000000001] [0.034418800000000006:0.70076000000000005] [0.034333200000000001:0.70098100000000008] [0.035011400000000005:0.70241500000000001] [0.035442099999999997:0.70302500000000001] [0.0352699:0.70225400000000004] [0.034861999999999997:0.70114100000000001] [0.034787999999999999:0.70104600000000006] [0.034899699999999999:0.70138100000000003] [0.034815499999999999:0.70113500000000006] [0.034694000000000003:0.70065900000000003] [0.034520099999999998:0.70009300000000008] [0.034187599999999999:0.69934099999999999] [0.034056999999999997:0.69908800000000004] [0.034118500000000003:0.69912600000000003] [0.034031800000000001:0.69883400000000007] [0.033874400000000006:0.69847399999999993] [0.0338211:0.69825300000000001] [0.033789699999999999:0.69797299999999995] [0.033598500000000003:0.6974229999999999] [0.033418300000000005:0.69702799999999998] [0.033461499999999998:0.69714799999999999] [0.033409399999999999:0.69701099999999994] [0.0331375:0.69638] [0.032985599999999997:0.69605299999999992] [0.032948600000000001:0.69600799999999996] [0.032743599999999998:0.69557200000000008] [0.032436100000000002:0.69516199999999995] [0.032279099999999998:0.69525100000000006] 